solver_type L2R_L2LOSS_RANKSVM
nr_class 2
nr_feature 231
bias -1
w
0.0439999748030148 
-0.1943933854354639 
0.1748170660849189 
0.09959774242481223 
0.08902680321860422 
0.09388797433143699 
0.02241149493285409 
0.05598414233899104 
0.04394769358600591 
0.06450080291341465 
0.2378132283792213 
0.0504625352230225 
0.02206620160484648 
0.3389132914552244 
0.05491027880472658 
0.3364087077438573 
0.6572135232893923 
0.3364120128682622 
0.5647224339921768 
0.3208504482086565 
0.4452344057672967 
-0.1627071558834521 
-0.1596213108948421 
-0.02480798801759444 
-0.03652836948220736 
-0.03487066275573368 
0.003303323495836048 
-0.05774501896171797 
0.02158684251376531 
-0.0785264059237616 
-0.05555119579416171 
-0.1038783702869401 
-0.04109030294940319 
-0.06667484664707272 
-0.04810746343971424 
0.04650781057892037 
0.09401706100473095 
0.03356597988183077 
0.08502263081675375 
0.03218118896175153 
0.06037940601222079 
-0.02141153753328861 
0.02402432272746229 
-0.0593756594988247 
0.006068379751796626 
0.01604265546521944 
-0.09629713819378351 
0.0430922422427413 
-0.01794130475652654 
-0.02884904656331417 
-0.03663615941546747 
-0.01267251295992808 
0.004340583361277835 
-0.04744392293205909 
0.09536575676938959 
0.1814675046869368 
0.09444718340138029 
0.1521786553379225 
0.08287513134993414 
0.07959750230165664 
-0.0303377102941123 
-0.07761061742802224 
-0.05816324734334433 
0.01973723548876471 
-0.112593724840661 
0.06616525728293472 
-0.06742976291647151 
-0.1051922890635996 
-0.1067534029836734 
-0.02053337071140096 
-0.1360570806940855 
-0.07637105385467355 
0.04512856970717184 
0.08913218079264222 
0.05095771711194885 
0.07342374873602822 
0.04520215665539577 
0.0286791538868686 
0.00283219960188031 
0.01389390077963882 
0.001368324549148165 
0.001134643667690946 
0.0009277863864431047 
-0.01148462929276178 
-0.03526065740005819 
-0.009020963843523008 
-0.01903912127755961 
-0.02969338491330854 
-0.04206186589012866 
0.01116606432093411 
-0.003354175348883785 
0.002319322490492046 
-0.00894702846654654 
-0.0005175530695234483 
-0.0160107494627951 
0.005044315488731756 
-0.003554357623010164 
0.03576086061548478 
-1.930989161057935e-05 
-0.02168681065208141 
0.05856771913547298 
-0.0278059821497261 
-0.02175780447368443 
0.06730384102624795 
0.002695914001011645 
0.007116614728271113 
0.03679183141488576 
-0.008510257310583138 
0.03687099864405142 
-0.01357323247214768 
0.0272800612567284 
0.0008762218442692971 
0.004147227124804638 
0.001868937730152415 
-0.01373344822372871 
-0.0334401602757308 
-0.01344816933042194 
-0.02047287122680461 
-0.02935189404717836 
-0.04057488055028388 
0.01218289102639986 
-0.0051984629619309 
0.002344627637008427 
-0.009224330157243813 
-0.001973440548110547 
-0.01587999381434876 
-0.0034118218331054 
0.0007598820851408513 
-0.002979932886704499 
-0.0159874236718164 
-0.005507491979268595 
0.006640787531454854 
-0.02197501968914892 
-0.005170917037922464 
-0.0001367022870766452 
0.002109856790022052 
0.004589899192170854 
0.005175889174268922 
0.007114259850365411 
0.005160865907566909 
0.003854815405113446 
-0.0255709962403815 
0.06556539946445825 
-0.03135283528419331 
-0.02652131062030982 
0.08375395550514216 
0.005113617704539697 
0.004121128235093236 
0.03724347831397821 
-0.01079555082113917 
0.03848845567001661 
-0.01726247459211125 
0.02825947730344296 
0.005357208860086665 
0.003022552856941404 
0.00543358449777076 
0.004432724475048054 
-0.001781243160263373 
0.001846830264490343 
0.006934748850771959 
0.01311903435915554 
0.007342507307768625 
0.009785432779719716 
0.008813841135507585 
0.009510767776377757 
-0.03236863741176237 
-0.009503538024867361 
-0.006596612608726833 
-0.03468884274145698 
-0.04052860845780582 
-0.02307173643552588 
-0.03997525336939901 
-0.03322829892791697 
-0.05396834397516177 
-0.03824981142329132 
-0.06237416105072233 
-0.04362763959565757 
-0.03021803161772689 
0.2398732794610413 
0.05141012182627147 
-0.04004359933602554 
0.06077935841142496 
-0.06142553520904748 
0.05826808648128186 
-0.06859965853751852 
0.05696559766647449 
-0.01554024114660974 
-0.04078668407376192 
-0.05157358821806457 
-0.02893054864509135 
-0.05444614963383355 
-0.04219939059998342 
-0.0722807958519277 
-0.04876051773434051 
-0.08065310515941128 
-0.03848598224025929 
-0.01383497130374552 
-0.01775759222459432 
-0.02205804486833029 
-0.01965203708392005 
-0.0330394416384335 
-0.02074554868631391 
-0.03710255330728345 
0.03615590749598777 
-0.04317030039257312 
0.07465866605445413 
-0.06928313325988551 
0.05564921415794944 
-0.08034375934981663 
0.04879738973911528 
-0.03909906005277082 
0.003460340438134781 
-0.05087757309894744 
-0.003290766791875951 
-0.05284553803213729 
0.001076507608379191 
0.01971364121481361 
0.03037051430063449 
0.02087442016381336 
0.02929885222921499 
0.01313282165623441 
0.01873476795372891 
0.1102994253027187 
0.01838081843638588 
0.09110693197617921 
0.009915483078998802 
0.03316542464286682 
0.0006269821298440251 
0.005916964329696701 
0.09107440839423189 
-0.001552401828855647 
