solver_type L2R_L2LOSS_RANKSVM
nr_class 2
nr_feature 231
bias -1
w
1.317175532792062 
0.2319486045296274 
0.5785986791188533 
0.160936269836928 
0.1895638588311838 
0.3607954821068971 
-0.04796711804712843 
-0.339938962849457 
0.364468409469183 
1.055762422379563 
0.715876090090886 
0.2831045227227321 
-0.05700139924728976 
0.6285863263748035 
0.2015992593160794 
0.4684799660512142 
1.314817380032195 
0.7804209420031768 
0.9470659466267282 
1.679930156337863 
1.23226958021449 
-0.3331156997279814 
-0.6303436964234144 
-0.465215650091133 
-0.2552314761171864 
-0.2174694357485117 
-0.01210547719672427 
-0.2874080543642343 
0.2400954064622325 
-0.1180155152169946 
-0.3820549892509876 
-0.05730169240417364 
-0.0189837442402706 
-0.2978678569383961 
0.01342204588579567 
-0.2971657534294314 
-0.4883239805668206 
-0.474923664880606 
-0.6320760806666323 
-0.5548982325336667 
-0.6419452559249013 
-0.1799675353414659 
-0.02555922445266771 
0.03893841568268638 
0.1421437111001717 
0.03556414602304435 
-0.291202933618802 
0.1489206029056104 
0.1166459859412388 
0.1922717724581399 
-0.1415792435139729 
-0.02815988100050066 
0.2876969260326215 
0.1903045569194141 
0.05881650085681035 
0.1762610701559262 
0.2826861048884871 
0.2826423824064522 
0.8116483991854504 
0.425456518581307 
-0.2053189763553107 
-0.08600421264969009 
0.04181140858988222 
-0.1073907249877903 
0.3886714404780447 
-0.2681863009783846 
-0.07368320746729806 
-0.2613629572260018 
-0.09533770663532087 
0.1141499169225264 
-0.1870490928247614 
-0.02750445693739718 
-0.05237309626444819 
-0.008494890801031569 
-0.2441610051950408 
-0.06678454160385265 
-0.2507050310868965 
0.07772466609220274 
-0.1638501317310188 
0.2874060267718968 
0.001927685073483433 
-0.2341293996189368 
0.1372380888242644 
0.05965350260161148 
-0.2427153974640531 
-0.09368062187111989 
-0.03789720836384463 
-0.2673947036711721 
0.1139602017427125 
0.01137554608674504 
-0.219841266175468 
0.07151628642547536 
-0.1982354707347783 
0.146214543974619 
-0.2224165004014757 
-0.1156356986251472 
-0.04274120297858613 
0.2273151169054709 
-0.07143187602565715 
-0.289514802207795 
0.08873917593167646 
-0.3957504453919514 
0.03795957476033367 
-0.0451726650523951 
0.04312717424303483 
-0.2535773676216536 
0.0204740913556428 
-0.2602624945096211 
0.03008911173753634 
-0.2640752041719358 
0.06751295175532104 
-0.03227468927539982 
0.03087360423919243 
0.2195418483134882 
0.32434680393641 
-0.2347643307660184 
0.1144231352898946 
-0.03723938091181758 
-0.1567816997954554 
0.1065146410186644 
-0.02686910753380717 
-0.2099468585345007 
0.1163067914889215 
-0.2311190985007046 
0.2055575117798629 
-0.3348856476753083 
-0.003473622238608504 
-0.1684186494080402 
-0.2366761158516553 
0.05242254921546462 
-0.148729935580887 
0.004945186336567939 
-0.03071750099352322 
-0.02555558747353543 
-0.01292030049828893 
-0.1015622331030814 
0.04377876365619097 
-0.006684066189600248 
0.01013504031551759 
0.02065894391142054 
-0.0691023410267201 
-0.3167281071269895 
0.2482916871087966 
-0.4290860031347099 
0.04622243316667222 
0.2832397365017326 
0.004518241372952515 
-0.4144324363144369 
0.2003024706298344 
-0.4137597046575471 
0.1750315390421684 
-0.4545757458657749 
0.1483967094499819 
0.1335711704628482 
-0.1804767406286704 
0.2149302345120745 
-0.0493033630641483 
-0.1986108375512176 
-0.07818242692935373 
0.1308251504529907 
-0.07288270307446949 
0.2138578074286543 
-0.009009435473914654 
0.2443878354909835 
0.01987604913753527 
-0.2558058286596289 
0.5914147128513315 
-0.0499635058258316 
-0.136251927119688 
0.03058566354245301 
0.01920905279852424 
-0.07022720852406771 
0.03728688515030532 
-0.1781678390029059 
0.1320834674996313 
-0.2825086420662449 
-0.2602918344102262 
-0.04013091559217837 
0.5775928492010204 
-0.2053868313634709 
-0.3477614097325646 
0.2317010475459067 
-0.3434414253472526 
0.08706567237631652 
-0.4120593163350368 
0.03890152295891458 
-0.03381364157769803 
0.1932926979208482 
0.0199398087899614 
-0.139956984269027 
-0.1320597959655192 
-0.151449242088454 
-0.2467403525171789 
-0.07530835130111818 
-0.4011138328658833 
-0.14464672938567 
-0.1290844039777043 
-0.0003379610410827664 
-0.04233366223927068 
0.02338156793729076 
0.04855445952155137 
-0.03424030511734637 
-0.01411790264962997 
-0.2956283144012017 
-0.3982514976031916 
0.2713233986643488 
-0.3895740898366345 
0.07584229459782012 
-0.4543543134609202 
-0.01999304340969872 
-0.007203553612139203 
-0.05788786541336589 
0.0563418012241638 
0.07140597843966051 
0.02889539209249806 
0.03488505649205552 
0.04078590097978639 
0.2027406765434864 
-0.2495506207933192 
0.1075477400167379 
-0.3629685694351421 
-0.2148757548237486 
0.4043775131133143 
-0.2679406432256173 
0.298653886157915 
-0.223476239507328 
0.3631193261910997 
-0.3245311553436634 
-0.3100064380936942 
0.1782633750449549 
-0.3535086630944033 
