solver_type L2R_L2LOSS_RANKSVM
nr_class 2
nr_feature 231
bias -1
w
1.643422664882446 
0.01103722601349074 
0.2813204351542279 
0.2631502893541608 
0.1836314693058987 
0.4639353963832236 
-0.1038402892668635 
0.38743227449444 
-0.04064829463091991 
0.5046309579947318 
0.652159376105186 
0.4914230330850867 
0.1127454855461556 
0.6863315090461414 
0.3495471014366001 
1.088285282464182 
2.197816509587337 
0.6218826266618778 
0.881044126796251 
0.4823017070038234 
0.6653239108417578 
-1.177080309641066 
-0.35522838106114 
-0.2240588075032074 
-0.2404410247861236 
-0.3212310110641042 
0.02816673163906206 
-0.4525671676962893 
0.1155474073830343 
-0.2716958205861956 
-0.2887374730181012 
-0.3413330504594504 
-0.06219594628379162 
-0.3638295968832188 
-0.003455017782500149 
-0.1115443834114022 
-0.5014729361627329 
-0.06680118692739138 
-0.4383893979721576 
-0.02766282317273414 
-0.3228612715296392 
0.3229791415740697 
-0.03657352255580586 
-0.1256177601536611 
-0.0575683440285569 
0.009189440631585249 
-0.256825240976041 
0.09765645360256385 
-0.007417812959728258 
-0.1128168223190832 
-0.09456874799891851 
-0.0303749490020888 
-0.07034091429480681 
-0.05042212560268466 
0.2643173324175149 
0.9418863599298229 
-0.1719256126895269 
0.01402016782820917 
-0.1496126895410936 
0.07121564872006718 
-9.755906462270356e-05 
-0.155892663381055 
0.1247445117714916 
-0.1012073819081875 
-0.13068135883548 
-0.05395357201179531 
0.04006432689343058 
-0.02326597523578956 
0.06018211296236649 
-0.04210958111094958 
0.08342078653650824 
-0.006390363566628122 
0.1847523516389983 
0.7245920235343876 
-0.2262807931939917 
-0.2153092694423828 
-0.2292628710445615 
-0.2125017782326141 
-0.0005346026986515302 
0.01184088438992466 
0.004909595386800855 
0.03014899253209508 
-0.007011872917737205 
-0.05103802742779877 
-0.0759267984207401 
-0.06081448381568603 
-0.05061141616419521 
-0.08090199769986867 
-0.05989737557429851 
-0.04153788513666879 
-0.05886332192281771 
-0.03733883737565747 
-0.04639749549152091 
-0.05080886671339784 
-0.05910921536410114 
-0.0002135091209358121 
0.006458635532015809 
0.06791265060912238 
0.05774592601418876 
-0.09630893374457292 
-0.00572263305239841 
-0.08901020676250342 
-0.06527658742664773 
0.007295261700972989 
-0.02174640069785688 
-0.07550923152860303 
-0.06283706593591931 
-0.07548713392386822 
-0.05366489320501966 
-0.08372468500484383 
-0.0719117201452677 
-0.007835890665366097 
0.04866865715889052 
-0.02348695043458184 
-0.03418261100292835 
-0.06159214435626321 
-0.06023480345643702 
-0.04390462495566837 
-0.1025899876538753 
-0.04080398553300154 
-0.03153311616007048 
-0.04212022739769793 
-0.03913121487274176 
-0.04838206084874457 
-0.05416660488893296 
-0.06543040328977981 
-0.01260112171816346 
0.03478263153602212 
-0.0633878306565728 
-0.06416958033703304 
-0.067164630829036 
-0.02972804301488067 
-0.05806541889637794 
-0.04332477201258312 
-0.01774072289154419 
-0.03279046357521684 
-0.009587828792101516 
-0.01448214785202642 
-0.01231235886298851 
-0.01412364638168832 
0.03989307726899286 
-0.05135828399597889 
0.02350025986852959 
-0.05207738162831001 
-0.04874465112830127 
0.02566915243797285 
0.007404881337444491 
-0.04219741838893222 
-0.06573586668972384 
-0.05526148292256648 
-0.07118137241581757 
-0.06226573870976337 
-0.09429258807730465 
-0.06190396629805386 
-0.04808290257037482 
-0.06202512538031087 
-0.02839811178832831 
-0.0475147823233139 
-0.04175667111945883 
-0.03439052244962438 
0.01455212194911557 
-0.02663780937059205 
0.03568440776911631 
-0.02990552272790522 
0.03587680409344587 
-0.01164019440695821 
0.09749028670508075 
-0.01455378414725701 
-0.08288758968604562 
-0.04747604205266288 
0.01597726297130067 
-0.05738383860077362 
-0.01474540753909687 
-0.1135573200487553 
-0.02996698078313587 
-0.1297483743543021 
0.01617879158207074 
-0.04202877071500235 
0.2779941674543546 
0.09103502819858991 
-0.06698947167066099 
-0.01044375872321898 
-0.1082741778333887 
-0.06556271780857791 
-0.1218606961421803 
-0.07702833809626528 
-0.02448200926895332 
-0.02667910335004454 
-0.03922895982777282 
-0.01086890124669064 
-0.05890107434158455 
-0.0455679750448676 
-0.1151325836754845 
-0.05615501113905737 
-0.12878685028111 
-0.07574305013997201 
-0.02632684974420225 
-0.01002659585879178 
-0.02651453226588782 
-0.02276674595958955 
-0.06091785575084616 
-0.03213763276012753 
-0.06544262463496198 
0.06566807275501875 
-0.1305382918270298 
-0.05767022488171839 
-0.1963077170231451 
-0.1310489597000916 
-0.2084557392215718 
-0.1450765915985149 
-0.03042287774799249 
0.02014106377306299 
-0.05284904305453376 
-0.006364888682316093 
-0.06506098301696522 
-0.00870673717788897 
0.138003648473011 
0.114793071310885 
0.1036851962911115 
0.08635433434964122 
0.08163341398064536 
0.01421938333134849 
0.06543782673338158 
-0.01098400650523409 
0.03210401360230947 
0.07726769897093778 
0.1787994536150389 
0.05328990479397712 
0.04662331214913628 
-0.1217800004330377 
0.03545972317551085 
