solver_type L2R_L2LOSS_RANKSVM
nr_class 2
nr_feature 231
bias -1
w
0.8308923866622056 
0.3818836489862248 
0.4189379456985228 
0.2090063705896887 
-0.00774013649614644 
0.4566678315423179 
-0.1027902653467569 
-0.3747291063697554 
0.5064516710946849 
0.7910250704806887 
0.593579129596254 
0.6375550977944653 
0.2145403716806727 
0.3778033608451353 
0.04571396036790751 
0.6528061410252788 
1.152088186489741 
1.258515692623241 
0.8033883427293775 
1.783776522842404 
0.7839049842671943 
-0.4140478271113439 
-0.2915738314034351 
-0.3234129536510334 
-0.2164269548359592 
-0.2989480857110894 
-0.07011562348897159 
-0.2701345644150024 
-0.06561863537525645 
-0.2532660785796386 
-0.1097533429170794 
-0.275086774355951 
-0.1684438617518256 
-0.171494975913784 
-0.05326366850587231 
-0.3594818762100464 
-0.1578965520045177 
-0.5209574605762788 
-0.4414093441733139 
-0.5450438944689329 
-0.4689400349362759 
-0.2487513441223127 
-0.2682184023552855 
-0.1190662919269225 
0.06500872095674216 
-0.1337338453071328 
-0.206446058416748 
0.1086541739175656 
0.1851622919568378 
0.2022645962506995 
0.03259207358418331 
-0.0080412068026275 
0.05037178249881012 
0.03248437896115718 
0.007592340264114745 
0.3084963428070477 
0.3992046086254539 
0.03330732080891868 
0.5541032746031952 
0.05140449161694133 
-0.1149164460159991 
-0.03818066747124328 
-0.08176223318760144 
0.09358798053873518 
-0.1952190866938542 
0.1577883050710969 
-0.06261987935993572 
0.01499196023421486 
-0.1149700968215337 
-0.1322354447208798 
-0.09813499175088294 
-0.04250905967654706 
-0.07662886775982181 
0.1137991252637862 
-0.1140604435024213 
-0.04978836591079363 
-0.05428804452009417 
-0.01797276200928946 
-0.03624848254525335 
0.04637588228004343 
0.02885554478076549 
-0.06652709685538429 
0.01192034839384682 
0.006185924871050155 
-0.02263027663620945 
-0.01359524721420034 
0.03109893159402191 
-0.048226329411071 
-0.01955042308965674 
-0.003262098721883013 
-0.04969504299051738 
-0.02109056490436551 
-0.1233278210156028 
0.02048697685761371 
-0.1021936763817529 
-0.05420497754120819 
0.01100629986526138 
-0.0661725675934132 
-0.0258197306037072 
-0.0460324592108963 
0.04809754440961198 
-0.0525199631991294 
-0.03420077686221388 
0.04141282621545159 
0.01946120007387071 
-0.06162639803982523 
0.006379634135597322 
-0.1137506273055706 
-0.03056119502539618 
-0.1079690133415426 
-0.02109884234521243 
0.0001589263744756785 
-0.08217111235065612 
-0.0005199178870244434 
0.1413862153847435 
0.06536747409566315 
0.1006530212244368 
0.06663414336228651 
0.02233053207622075 
-0.01576058949926954 
-0.01734695312121696 
-0.07382694077146143 
-0.016754337663205 
-0.165655028448136 
0.03731105810477302 
-0.149336436946636 
-0.0003951736382487234 
-0.004019884387161339 
-0.09578767175629921 
-0.06184962010893329 
-0.07546888912953301 
-0.02931048935138422 
-0.04005009765861587 
-0.00890244836031413 
0.03458716976484361 
0.007261731132751312 
0.01672792284477632 
0.002274725543872834 
0.009594019940184873 
0.01752507794794467 
-0.01041239628232539 
0.03407867246154986 
0.1479200535969662 
0.001395917468404357 
-0.02889036971178447 
0.1082453138999703 
0.04243984443011134 
-0.1063330053094966 
-0.03116339501661869 
-0.183839291698808 
-0.08037753760608847 
-0.1790708278197015 
-0.07564197659834097 
-0.07903655801528206 
-0.06524668870616189 
-0.05639785939628462 
-0.01404768824912236 
-0.03742214624465172 
0.001048304889055677 
0.0110515115321868 
0.06339345984100653 
0.05171453534929704 
0.06042597954729377 
0.04725313201717388 
0.070157735615233 
0.03562786715539751 
0.1275471608804375 
0.04926648495415087 
-0.0416938779904782 
-0.09579332756109156 
-0.01422296059248129 
-0.03236919831246475 
-0.0554621428923264 
-0.1201180101541334 
-0.02466397570339143 
-0.1129543423919998 
-0.02875862190613403 
-0.09414520035609952 
0.2234672755083979 
-0.01454841271207925 
-0.05207134077223444 
0.07747200003927568 
-0.1472221945092046 
-0.006982428308429604 
-0.1389614804305507 
0.02639406642203991 
0.03138623743816788 
-0.1695339819055545 
-0.1058571986017599 
-0.02202252094402567 
-0.04056485438035601 
-0.07537341263927885 
-0.1358265316652174 
-0.04517047382487681 
-0.1279607813893448 
-0.1142295715870327 
-0.06460125131218786 
-0.007493436988650541 
-0.03547244107226966 
-0.002177264832062915 
-0.08350122130004156 
0.005955621604028624 
-0.09589849995133723 
-0.02723379581370741 
-0.06964526223249529 
0.07256545617347357 
-0.187911332971312 
-0.03560931041517831 
-0.1730462415623786 
-0.004263502138590535 
-0.04203594659063954 
0.04792588086238388 
-0.07758862598052307 
0.006500763056936329 
-0.08586327588771467 
0.01788005428976272 
0.03170473408884114 
-0.04547780217808862 
-0.0987895151869006 
-0.01270783385921572 
-0.1243873692705504 
-0.1006724714952461 
0.27492014430336 
-0.07127945336761027 
0.2579872539310252 
-0.2200501564814124 
0.08275659373078607 
-0.2661328883332184 
-0.2195504585289007 
0.1234536908835495 
-0.2458861734658103 
