solver_type L2R_L2LOSS_RANKSVM
nr_class 2
nr_feature 231
bias -1
w
0.4872240910494266 
-0.1572514077290058 
0.5555368261431028 
0.1147544426490205 
0.08371731047235083 
0.1004775331309842 
0.07149199519256598 
0.04052911615253679 
0.05295134502462265 
0.1726922031587746 
0.2851201326263744 
0.2049735073460266 
0.1145399762575174 
0.315114283029942 
0.224410099224918 
0.6809358035194535 
0.7888989419115516 
0.9044706373137891 
0.8870552740504731 
1.185262080778288 
1.014786048084697 
-0.07127804663500731 
-0.5364183473217451 
-0.04185363654638834 
-0.04069955735073236 
-0.0540795479015857 
-0.013472449331464 
-0.05619137377897321 
-0.0004165537932982975 
-0.01367176092553191 
-0.04303665302549067 
-0.01702178335099536 
-0.01049398763372011 
-0.04690199805266562 
-0.03767877963355339 
-0.1296275168818463 
-0.1413933145228626 
-0.1850406016026715 
-0.229397682261144 
-0.2463162913427451 
-0.3068680097523876 
0.0169923869414295 
0.003970749494743971 
0.03310057906956929 
-0.01209643253536317 
0.02610734347188635 
-0.003067261306915699 
0.05285513701042047 
0.03863261204578952 
0.06841733663680022 
0.04064044053483123 
0.0311540144879074 
0.07293798291824197 
0.05443741098821433 
0.1958507674749597 
0.3480301718299827 
0.2506038047852923 
0.3536480276910786 
0.2932383703250293 
0.364202391747828 
0.01381200950144114 
0.04494993948372965 
-0.001803705696585516 
0.01566865941457422 
0.04566843816025077 
0.0158705066156561 
-0.02720408945694624 
-0.026205615539226 
-0.02388593728920401 
-0.03267936104062253 
-0.007823072853695566 
-0.04962747401826786 
-0.01108640861495034 
-0.08371224682223823 
0.05029317447525929 
-0.1668405959631976 
0.07101295959044625 
-0.1634763322477688 
0.02525220445476047 
0.03268027936822263 
0.0283573717234568 
0.0220332934993231 
0.01652748229668369 
0.001390330292106502 
-0.01176921830244584 
0.00197795965384436 
-0.003119057193103091 
-0.009057402117464669 
-0.01679935739867075 
-0.02961497016573832 
-0.009886700714783611 
-0.009504789578611793 
0.001571750706797009 
-0.007274779186649948 
0.006111470755056481 
0.02268854462010172 
0.02084391094356394 
0.01012292804168311 
0.002694631186833168 
-0.006045366971149271 
-0.01636365119878529 
-0.006310445223213461 
-0.005156873071441581 
-0.01257626072543223 
-0.01765536737502297 
-0.01344345900595552 
0.004994889649906729 
-0.01025635955041204 
-0.008616197858645005 
-0.003560264173879618 
-0.000445858643263448 
0.02829525886732904 
0.01772353703467268 
0.01618893160726252 
0.005196298844812035 
-0.007648390984304696 
0.007996183087778967 
-0.002020679490792893 
-0.002150826625311636 
-0.01506107917200282 
-0.03226518271270377 
-0.009967303778749086 
-0.0136139214112041 
0.002362268353170721 
-0.01101902001572511 
0.006464268546843621 
0.02049511464555916 
0.02121668569973182 
-0.007320105075217012 
-0.01839613770852402 
-0.009425670002712785 
-0.005230356020706936 
-0.02136741105367523 
-0.01650437770508701 
-0.02086977759709904 
-0.008488308745201432 
-0.004415970090897448 
-0.002653384968096769 
-0.003468682934566009 
-0.001163635434572502 
0.005751572806141144 
-0.002073809218835857 
0.001054396409652623 
4.965295336288047e-05 
-0.003547207692134137 
0.009039522102951844 
-0.004243136307320483 
-0.01815710228565191 
0.001126848414026068 
-0.01685930207334239 
-0.01126799245591235 
-0.01011576143289237 
-0.002214201503429423 
-0.01199701680894988 
-0.0308776893090164 
-0.01544487973161505 
-0.006955785823565604 
-0.03402796739305985 
-0.02698708800884691 
-0.008597510224865617 
0.000529164232747055 
-0.007686754057904582 
-0.007547423372644128 
-0.003022775870763054 
-0.01048889267978434 
-0.04680687084080008 
0.01180213198470642 
0.001621919456499143 
-0.0436605829619069 
-0.05855971651550829 
0.002519845966280781 
0.004595187192880525 
0.0006950006680308623 
0.004093650079256763 
0.00998593028061916 
0.003662340059621354 
-0.04451079779969102 
-0.0573656560799598 
0.1753160330053881 
0.1192580155418818 
-0.000254446091063399 
0.01784496598884259 
-0.01749625725933813 
0.002106157410158469 
-0.01503687663562465 
3.91807168935443e-05 
-0.001931304376214937 
-0.02982653379120481 
-0.05965209968826123 
0.004148598167097305 
0.005875538599527586 
0.004068062136634717 
0.007436489135180822 
0.01290832092911947 
0.007082579337938755 
-0.05848496867673632 
-0.06341252100917542 
-0.001326478080781906 
0.0007036241334449203 
-0.003935960813436733 
-0.005223611073822659 
0.004749139170945442 
-0.004595008063844037 
0.1197943815701998 
0.001596930217895016 
0.02068320493988065 
-0.01066712174161642 
0.01040902041297072 
-0.009447082900141332 
0.007860543497699379 
-0.004969107810832409 
0.00937118214253563 
-0.02396672343458699 
-0.01030424179444532 
-0.02236159884133762 
-0.01400537832409793 
0.1026295222595228 
0.03296426885873843 
0.06562642213348419 
0.02578037539641108 
0.05978185658213482 
0.09520918699762265 
0.1481930428251558 
0.0864501382243382 
0.1347810832822742 
0.08339854141347536 
0.02752707899137305 
0.07885065689700796 
0.09374389605524605 
0.1184249772249256 
0.1177319492022476 
