solver_type L2R_L2LOSS_RANKSVM
nr_class 2
nr_feature 231
bias -1
w
0.9721520288675966 
-0.1243184993234342 
0.5421267158959955 
0.1786895391555721 
0.1322418460614822 
0.1311005350260426 
0.1345925895142213 
0.03908857841977165 
0.0566455467636912 
0.371379362706811 
0.7156435582002281 
0.4145093905387594 
0.1781963794092702 
0.7095966449178985 
0.376337144640754 
0.8923619944744473 
2.072129605817625 
0.5298012301468964 
1.133276503033421 
0.8354435009979129 
1.144071162981726 
-0.8746821607203636 
-0.5540646469607647 
-0.1568217281880207 
-0.168814273502157 
-0.2206047742374974 
-0.02209385835767109 
-0.2329340273905947 
-0.02905663202367818 
-0.2616320353881378 
-0.2274556088829671 
-0.2693085969412138 
-0.1599040479636382 
-0.2984613978458525 
-0.08690011081288536 
-0.3386946756800143 
-0.2713505142655931 
-0.4681420477786931 
-0.4521321064666933 
-0.5183945434688322 
-0.4932524745251816 
-0.004020756843117338 
0.09277864427816762 
0.0158170942775771 
0.06999948710290919 
0.03788331552199991 
-0.0421027756188628 
0.0298480155876081 
0.004862974772669251 
0.01746068717187528 
0.002772903725851407 
-0.003150994310300255 
-0.01787743468932835 
0.05991657495105146 
0.2998275193455838 
0.5875205081358218 
0.4040747441343049 
0.3555670689303302 
0.4720361676242724 
0.3683903809997095 
-0.01460937297726972 
-0.0843441420586681 
-0.02074496219235683 
0.02500796539077114 
-0.1289586005935777 
0.03649945793697477 
-0.0615461523620711 
-0.1184585679517101 
-0.04989458446475029 
-0.09346896039489824 
-0.1455948360632249 
-0.0925506105762316 
0.02884843047574752 
-0.01721500631052055 
0.145008355381391 
-0.1548406073938011 
0.2208665809999386 
-0.1442951103744519 
-0.01103559007040201 
-0.0337406531976033 
0.008018581638282028 
-0.0102017189447231 
0.006424776182663745 
0.000970331164865933 
0.01066514719708144 
-0.0001126905744343537 
0.00121095849597252 
0.0115245330195258 
-0.002544701547679943 
-0.01402176297368929 
-0.005909499225427632 
-0.01472083551756685 
-0.009692366139410139 
-0.01513109246393439 
-0.01035250912928329 
-0.01690081710823549 
0.007301200318505714 
-0.02506737136071765 
-0.02511866112730212 
-0.02687343999766717 
-0.005474268928140447 
-0.02445970148479976 
-0.03253974309044194 
-0.007940603252420898 
-0.02043371797826705 
-0.04700645960079812 
-0.03535323070326362 
-0.02668953517213394 
-0.03107745446211 
-0.01347093480234626 
-0.0286388094129695 
0.01216885451935131 
-0.01971708744203573 
0.00870493865330549 
0.004043425810680268 
-0.001239651821936784 
0.004768251255386079 
0.0008690745086009895 
-0.0007309562935180966 
-0.01007701065165365 
-0.03051758900027456 
-0.01865475727117661 
-0.01348215809962853 
-0.01299739385164862 
-0.01514705201491316 
-0.01359554214410137 
0.005540307462576092 
0.01127034762871223 
0.0002101553990450943 
0.01532882889247815 
-0.0008421894288993398 
-0.000576561820229637 
0.01568245476623834 
0.007191060815235519 
0.00993931643110591 
0.01276049919431247 
-0.008107255267935766 
-9.23760725807226e-05 
-0.005358880344256512 
0.001587874834101451 
-0.0176423856693978 
-0.00858280615165004 
0.01262139123718233 
-0.004978813740973789 
-0.02485007657769061 
0.01422054606181303 
-0.01621959099645344 
-0.04802935930837327 
-0.03511503980901838 
-0.01553225655841638 
-0.02932549552556411 
-0.006129116664398996 
-0.02581586577071325 
-0.01419423299752708 
-0.02491287076249995 
-0.01751401247169702 
-0.01241960546195135 
-0.03041292313379074 
-0.01932972698242764 
-0.009194543766643297 
-0.01883726457536551 
-0.01934640527882486 
-0.02367488478723517 
-0.003238331826075373 
-0.0207812779485197 
-0.006617390162082407 
0.06243345651699619 
0.02279937060017157 
-0.009000164427934677 
-0.007657380076697111 
-0.02530835178218043 
-0.02785707784081632 
0.002705966003118236 
-0.03343453848567474 
0.01002004069417128 
-0.03370530687991826 
0.01301420641195193 
-0.02442724651227652 
0.1316849409798767 
0.03396945352743655 
-0.03714580719606692 
0.01349426213817805 
-0.03243768552251899 
0.001975885074336714 
-0.01773800025452617 
0.01049938123432759 
0.01958153999343224 
0.02565405186131393 
-0.01448696866176687 
-0.01027524086971077 
-0.01858224927785565 
0.0152643616419478 
-0.02536228261553714 
0.02040607269622432 
-0.03162227300400324 
-0.03600360502079351 
0.005728883482978243 
-0.02775941877179294 
-0.03269785273879323 
-0.01492147276849241 
-0.03828526215477128 
-0.006723652584090766 
-0.03146924080660226 
0.01383727025186583 
-0.03994115499718941 
0.001418689874008915 
-0.03871892698029192 
-0.01982274733778134 
-0.02375662039253481 
-0.009831754867109334 
-0.04523429931779703 
0.00600649923619999 
-0.04286119017484282 
-0.001779399596440733 
-0.02814295621987906 
0.005691362295964158 
0.1425384965183023 
-0.07428920978454923 
-0.01121691847735263 
-0.06756426651547304 
-0.03695456690019183 
0.03100867428543092 
0.1975671262508193 
0.0606413477395026 
0.1805527746876341 
-0.02583160429076655 
-0.03838889002524136 
-0.0340650309182018 
-0.00446647569268555 
0.0939694539335327 
0.009112832773203501 
