solver_type L2R_L2LOSS_RANKSVM
nr_class 2
nr_feature 231
bias -1
w
0.7829609192436475 
-0.1772062333169697 
0.3833080356682635 
0.2390578580211101 
-0.0378924105940948 
0.1361909977908835 
0.1131364991664216 
0.2631094187766182 
-0.1075494140017348 
0.09840557357751717 
2.205813600778904 
0.2336685915607753 
0.04669856620180332 
-0.1588552118738126 
0.3048202285401341 
0.5009912558161799 
1.847332732592935 
0.6160601454198406 
1.103781591282425 
1.142921389908853 
1.220246684212993 
-0.3908109691327326 
-0.067354222873987 
-0.1380507663181336 
-0.3188032822527471 
-0.05227562790963615 
0.01522648824432637 
-0.3548022189495699 
0.1012342741402123 
-0.09139657092017117 
-0.1677489088730193 
-0.03053441525973468 
0.03728367808733317 
0.05920149993984043 
-0.01230155817911685 
-0.5323283490083429 
-0.5056633089721788 
-0.483490971618425 
-0.5221607914475674 
-0.3817782372814219 
-0.5031080383912145 
0.1900107365279096 
0.068998826105908 
-0.1260274707879022 
0.2489183066353672 
-0.06604255705191986 
-0.1452991421949194 
0.2057446648624626 
-0.144338665893477 
-0.2412973161084226 
-0.04985061450219223 
-0.0649730739603708 
0.1868254339005047 
-0.001432052028166264 
-0.04469951836609384 
0.1811134706350181 
0.1961420892985901 
0.2602144753054751 
0.4795598149694123 
0.3648981048015343 
0.007808079154252954 
-0.2846741872275664 
0.1505061807373229 
-0.02890756241465732 
-0.3418082179632397 
0.06243913071198187 
-0.3548153660377291 
-0.0576539160377733 
-0.230586356111158 
0.00201735257208379 
-0.02892287258330604 
0.04161727103062296 
-0.1455582673128582 
-0.1170107361581373 
0.0579263599790693 
-0.1026067414514215 
0.3152929275746124 
0.03673333977017866 
0.02560957394976465 
0.1022172342550961 
0.01375957102608951 
0.03268219248964621 
0.03451433793474833 
-0.0169909773580299 
-0.135344681998073 
0.005142726756185741 
0.008169440644685558 
0.1182403015874694 
-0.06369317841837861 
-0.1269312436308906 
-0.08765522531982285 
-0.05767677805556937 
-0.09941267373531841 
-0.02839796149336918 
-0.08378947923938215 
0.01826877734860746 
0.0855517374043178 
0.06375521083085452 
0.1199064340229954 
-0.1141787267542625 
-0.1675433167104517 
-0.09050840359183315 
0.03343595575667362 
-0.1788958422055261 
-0.03237730486451717 
-0.2021691177463563 
-0.0360602534273908 
-0.1852502740608828 
-0.08049485725799518 
-0.1656209493920963 
-0.06557097035906917 
0.02859547768203012 
0.01665615196365772 
0.03158962814836198 
-0.03556864944071648 
-0.2291643600169248 
-0.007106421698250154 
0.02594956425001915 
0.1019782757567478 
-0.1000873003900065 
-0.1670179673619557 
-0.1096914075273751 
-0.1226956025443748 
-0.1313756153736552 
-0.07070867186149984 
-0.1082099079820507 
0.07625900350292915 
0.09549440125847189 
-0.0473448823195787 
0.05113779430652132 
-0.04643354612135151 
-0.01441224363039931 
-0.06723914266938613 
0.06175357780823252 
0.008551051338702178 
0.01914524637743011 
0.006265085254552384 
0.01700146814773627 
-0.02102774870176717 
0.00318938503990534 
0.08726251957483915 
-0.1127856466158948 
0.08720107516767048 
-0.06592506578095601 
0.0396283717176179 
-0.06690946980527472 
-0.003404350258621053 
-0.2470313055615132 
-0.04282903234552009 
-0.2542611384824826 
-0.1130463760352358 
-0.21895275754352 
-0.08286698626306238 
-0.02405563364361112 
-0.2107008030725721 
-0.0280305489156117 
0.008307103566572882 
-0.04336155610021992 
0.02524490377215493 
-0.01852387612049245 
0.07167346669628964 
-0.01572491811450247 
0.06013442213109379 
-0.03512801029783783 
0.0486693348498857 
-0.08704241626202711 
0.127964631837975 
0.04246483078583808 
0.2589216169833035 
-0.05563261551347606 
-0.06780206977061889 
-0.04928948888263878 
-0.01688276055644362 
-0.08702033431357202 
0.0058154131009113 
-0.09068727445941072 
0.003107552061220861 
0.0225572583197102 
-0.1468291963961039 
0.4854156601311006 
-0.251371432865593 
-0.1594252321174424 
-0.2515629359964729 
-0.2474706044761285 
-0.2611396300924375 
-0.2502230656042869 
0.03450769861811226 
0.5323692279408042 
-0.0751788778255041 
-0.05533050959895713 
-0.006231297206353553 
0.001666658841301247 
-0.0598626249411618 
0.01679674863341776 
-0.06514610860408192 
-0.03890846741002923 
0.05193958015550128 
0.02976934988964135 
0.03309972722553072 
0.03361237066046429 
0.04937182215595397 
0.03080000218620455 
0.04393986245363171 
-0.5011540062022657 
-0.1139977481774895 
-0.2168712961320739 
-0.04485697793226046 
-0.3017670911758228 
-0.05393716518794608 
-0.3028488268942067 
-0.09924102093262781 
-0.09789261814758229 
-0.1028699404653708 
-0.1346861835632429 
-0.1095163350884309 
-0.1524796825599912 
0.09827890838161768 
-0.01508063023010378 
-0.1128425080229359 
-0.005001451164584923 
-0.1453022929243533 
0.02135345023761909 
0.2721356458901514 
0.05002913684835657 
0.212364051082294 
-0.1483886722169308 
0.0003102412109431529 
-0.1724639607571417 
-0.1127830163066943 
0.03914583575391148 
-0.0943844926446626 
