solver_type L2R_L2LOSS_RANKSVM
nr_class 2
nr_feature 231
bias -1
w
1.038413905994853 
0.1797535020062513 
0.5161762375730029 
0.1415855127191033 
-0.1462375862067124 
-0.1460152265993461 
0.3280581090378336 
-0.3353324875383184 
0.2840324544976141 
0.304250268678791 
0.9852470108893712 
0.339157402220038 
0.1460054171868386 
0.6953768493010611 
0.2617743699201323 
0.406569072887233 
1.847161716992385 
0.3676590152063686 
1.62774851843116 
0.2716879343467375 
0.8950371509164382 
-0.2016307972114277 
-0.2753494936342659 
-0.1039433602948259 
-0.265350605281181 
-0.08149652294749271 
0.1010486722538519 
-0.2131522392637853 
0.1348698707843567 
-0.1867942508586009 
-0.4381843155462168 
-0.1057741744851349 
-0.07027816773861122 
-0.5118371340447936 
-0.01473272596828148 
-0.06484198206506603 
-0.2866513941452524 
-0.1189778036848704 
-0.3378608586568089 
-0.1305317766523631 
-0.4591508962650928 
-0.410956664505814 
0.08372224079428468 
-0.1873967239583142 
-0.02460520140954326 
0.09511113151906954 
-0.2834704926888242 
0.1253719690428574 
0.1387994226607011 
0.3381914478924041 
0.1428307290273547 
-0.02568809216819862 
0.2977784211316234 
0.08740359397273019 
0.007017499461040464 
0.5683894015696972 
0.09808097332726216 
0.4685312689973674 
0.08154743870692777 
0.1772422277859968 
-0.0149590355986869 
-0.1445071037274339 
0.1053764889381824 
-0.05592174199514675 
0.02415402388732585 
0.03010335272240087 
-0.06796578467955761 
-0.109704892081873 
0.09009598652101854 
-0.1478903804568696 
-0.1160640997447159 
0.04448140980995938 
-0.1314261749453369 
0.04704355057101974 
-0.1328040013499613 
-0.06451427191082931 
-0.1379326053876443 
-0.2663471739333956 
-0.0503982528440886 
-0.02020616387506801 
0.004354116236255044 
-0.008378968811037255 
-0.0177690073069301 
0.01908224647866562 
-0.02647841053815342 
0.04837395006156135 
-0.01062854780274079 
-0.09070418873818979 
-0.007228712211309084 
0.01725496669669717 
-0.03973828885526448 
0.005850680579992541 
-0.05323315337036309 
-0.002643757293317592 
-0.0727030557930408 
-0.05398572025112976 
0.0131794795156266 
-0.1292603093589839 
0.008429405937510206 
-0.03597710096731645 
-0.07537416127695985 
-0.03172955741241232 
-0.006244033105973967 
-0.2009394085581969 
0.02216811054670268 
-0.01417493307689111 
0.01646450252051387 
-0.0422523689759431 
-0.01968495456265781 
-0.04416729997735505 
-0.06023347221291674 
0.04424982816538126 
-0.03619464350238484 
0.01536783173322588 
0.01636539987551903 
-0.02815089518936935 
0.03881091466175825 
0.009304528285386728 
-0.1047724373755126 
0.005008695611902239 
0.0073742149685436 
-0.03264572872377872 
-0.02355636042830839 
-0.06046116528950001 
-0.0309395260351292 
-0.09115610256320683 
0.04508255674184535 
-0.04881320944571866 
-0.005625933290723915 
0.0004021991285425699 
0.01006281777956593 
-0.04417370049980121 
0.07314435477348019 
-0.04336352719742904 
0.002397965685427278 
-0.002232123946799701 
0.0112250169800138 
0.0116036140003556 
0.006734626753416364 
0.01881969565966084 
0.02329018342551295 
0.01147359715908081 
0.02964974236218418 
0.03196658961422182 
0.00742762172137891 
-0.07202171118149883 
0.02320444200445762 
0.02001000648366404 
0.1144636880466757 
-0.0105308185989412 
0.04968174644900691 
-0.01692148211769568 
-0.05074140619748792 
-0.0443063965285144 
-0.1627888559887505 
-0.05366732317209666 
-0.03289351706664639 
-0.166653838863723 
-0.03632609153806598 
-0.02499387721102107 
-0.1356792635903143 
-0.01805422071199689 
-0.112816021746704 
-0.0196890911746511 
-0.05972473594001972 
0.01348732980980346 
0.186780011339817 
-0.009880542020470961 
-0.1473494727198733 
-0.01634676424440814 
0.02497963848205577 
-0.0344341034800647 
0.02350165784360015 
-0.03318912268754202 
0.02649744492876688 
-0.03882456036033801 
0.007308513734950816 
-0.03748987403062617 
-0.07735622055544539 
-0.08155893686462909 
-0.02596027490426647 
0.06452607503769901 
-0.04318751477904875 
0.04161984590230654 
-0.05547806039549265 
-0.008148072485253531 
-0.01264808049358157 
-0.2295543803656223 
-0.01597056353548583 
0.06352087513221821 
-0.0266265025275315 
0.06198704026114553 
-0.01951750504933383 
0.07331266556587973 
-0.02671674797914175 
-0.02010709096425272 
-0.04554898750944551 
-0.003808374154090907 
-0.01195086082375323 
-0.01134443638922589 
-0.01154572609895536 
-0.01883766261751688 
-0.01041319934557694 
-0.07762124658433658 
-0.05450259120186463 
0.02727107334986414 
-0.08961157182568136 
-0.01587105495836818 
-0.09960671748212999 
-0.1144770382105413 
-0.01396110897087198 
-0.04479405974097388 
-0.02226915211698763 
-0.04559726421757071 
-0.02637600872948263 
-0.01877770146527812 
0.02681258150742217 
0.05485493493487191 
0.02079914362696668 
0.03450799565063362 
-0.003920821969317675 
0.004161906710793922 
0.4649069450478117 
-0.01271561082843572 
0.3179377951711201 
-0.008216036400891413 
0.009682082096577917 
-0.04414067957440707 
-0.03629518880058303 
0.2535897984917875 
-0.06991706726687402 
