solver_type L2R_L2LOSS_RANKSVM
nr_class 2
nr_feature 231
bias -1
w
1.340391253428795 
0.2853766960546509 
0.4499530942334143 
0.1538097000760766 
0.2155622481235795 
0.6594925194541467 
-0.5194609766492452 
0.3873407450008275 
-0.1056359076829819 
0.6939123251400019 
1.146621107404595 
0.4020318274548446 
-0.1019591773859086 
0.9095875124586601 
-0.2156151601583823 
0.5523597058543294 
1.370661402577359 
0.9282876286365838 
1.202965276691739 
1.235614096329053 
1.436283287583679 
-0.6335742957810004 
-0.3641597859612513 
-0.2620233611807217 
-0.3798465331210454 
-0.3230127467747947 
0.1825680021529222 
-0.544759141250012 
0.137495658958145 
-0.3294551906870919 
-0.2756486264302349 
-0.2984728580607059 
0.06968996178840492 
-0.2886802932336752 
0.1262558862985115 
-0.4625000454570263 
-0.3814012020567505 
-0.5231821497017457 
-0.5132630934391073 
-0.415584266783454 
-0.3459131601444245 
-0.1069483568318833 
0.004768523169204567 
-0.1485931074600615 
0.3426632559302288 
-0.1240512426944825 
-0.01274109537658549 
0.06481332943547163 
0.09570477602823566 
0.3058502304015172 
0.2460615379038726 
-0.0603046186663712 
0.1627017304988161 
0.1427514774724375 
0.2484342546620234 
0.09756129514249967 
0.4283744133666166 
0.2175398687993619 
0.3689098833095912 
0.2074581195617828 
-0.166473561334899 
0.003324675600876081 
0.04654457963927838 
-0.1104190774609274 
0.1059066804429219 
0.04614369980666198 
-0.1554096472495886 
-0.2111199099216345 
0.0925371802489508 
-0.0521905648159211 
-0.1926002701091449 
-0.06510732981536865 
-0.1380274887506233 
-0.04890300241393884 
-0.2228783543083297 
-0.1285821713017744 
-0.127067063965189 
0.01037671110059097 
0.140546246069518 
0.02328922105979409 
0.2484583595099874 
-0.07596940932926523 
0.217567007658672 
-0.008301609323918036 
-0.1624749882635453 
-0.07147081257800293 
0.04895698213235736 
-0.2338510027698649 
0.02917802971456236 
-0.06276610974583251 
-0.1008461009409045 
-0.04569000837417662 
-0.1109704727058894 
-0.004555252537077215 
-0.1203176744407658 
-0.04925486020211998 
0.2113024477782542 
0.02460647716943844 
0.1957591300342713 
-0.1518920793174997 
-0.05412008026253474 
-0.2387594044486215 
0.08918957086243308 
-0.1332097422286793 
0.04912194887372974 
-0.1621698094477936 
-0.09216937507907405 
-0.1836548614007002 
-0.1823710404633443 
-0.1567138113964712 
-0.1365369455477598 
0.1437902903426249 
-0.1760620099442722 
0.1344160567927419 
-0.03095336954143237 
-0.2246636822083723 
-0.2035932445250239 
0.03908023897324233 
-0.3301547633623789 
-0.02430475702608133 
-0.1792475951882161 
-0.1602067139644018 
-0.1886974953332617 
-0.2132219097627282 
-0.1464002261411074 
-0.2142055347512409 
0.08065037131130272 
0.1639789406797832 
-0.03298920584502037 
0.07760750990767129 
0.02067881648748069 
0.001476340898925621 
0.1065415712965362 
0.09513385558996543 
0.009768058389682201 
0.04528027682505721 
0.08557505037999641 
0.113758961087503 
0.09371284563337415 
0.1014128079231875 
0.124835769036785 
-0.1586404404012095 
0.01981185491034011 
-0.2530563077116343 
0.01388652739146701 
-0.0009800747165667895 
-0.03017135135304269 
-0.2650270405798392 
-0.1664938982454371 
-0.3595247575860516 
-0.3197228225084598 
-0.3072357796052666 
-0.2789531719458566 
-0.06878424782037425 
-0.1505607630825851 
-0.04768641341070057 
0.01987398050726674 
-0.1589613250114253 
0.01706006953635721 
0.02753960300666555 
0.01256857164415819 
0.09485014166697528 
0.05800666408634026 
0.0733940709301469 
0.07091324188965703 
0.05254493008551016 
0.2434706308987817 
0.1083289237603105 
-0.1703593839713385 
-0.02163199141018296 
0.07628421995966328 
-0.06742970896603082 
0.04270916041821778 
-0.163589308196237 
-0.01325815849522721 
-0.2191317202630416 
-0.0736858100432855 
0.0089749922794626 
0.4877729481626009 
-0.03737961547882679 
-0.02070618066329133 
-0.02121940174838982 
-0.1232647873045453 
-0.05319960629460264 
-0.2342013921732248 
-0.07905041370582847 
0.08073604200951356 
-0.1061518588133093 
-0.04907910292037334 
-0.01388867881877894 
-0.1356052511378814 
-0.03247904498445291 
-0.2128678665278161 
-0.1075979690066772 
-0.2905645364230712 
-0.02383082303007163 
-0.09968309276145083 
-0.01444726866068022 
0.002038406579477568 
-0.008536441642014645 
-0.005807691382054608 
-0.0351541371857431 
-0.02026019874843165 
-0.1186595663037846 
-0.05851238445797104 
-0.04647393283741567 
-0.2041368862448029 
-0.09574796570573249 
-0.347291807157436 
-0.1737572459294324 
0.02995721526560734 
0.002431276340008856 
0.03205585904672414 
0.031271918351221 
-0.04658641233059278 
0.005778468834533999 
0.09450443828033836 
-0.1194993021299662 
-0.1557762529781053 
-0.1148167674559541 
-0.2244172614204272 
-0.1913853242196697 
-0.02956373379737411 
-0.185642138941256 
-0.1070563488425024 
-0.06522034531370444 
0.07710920450504741 
-0.1290740598703796 
-0.09491038740387843 
-0.1263241804305223 
-0.07235451139945914 
