solver_type L2R_L2LOSS_RANKSVM
nr_class 2
nr_feature 210
bias -1
w
0.9782717750216753 
0.2371607533197275 
0.1267116847258026 
0.152064084183918 
0.05958690531228404 
0.09888359018953823 
0.1530524086249813 
0.04106351873238866 
0.2755988731458734 
0.5398527884917338 
0.1269129981876411 
0.1873340150780038 
0.5086585477455674 
0.1818945477757468 
0.3056660316692807 
0.5135517501449368 
0.3519931892858118 
0.5694035094019352 
0.2896501679368174 
0.5314669985224116 
-0.1544504530258108 
-0.08217629462569367 
-0.09582988172050433 
-0.01624841593400469 
-0.04953365676114788 
0.01412984652696006 
-0.07161591016643876 
-0.08021736372287276 
-0.0725472372428112 
-0.1651312824098138 
-0.02091355319764202 
-0.1452506830846964 
-0.04990446065325937 
-0.007712075948008879 
0.008370265615242393 
-0.05409805284539668 
-0.04298579559312377 
-0.06107953205530496 
-0.04446255351708515 
0.03471611046995306 
0.01095523053974203 
0.03613358854001795 
0.03158735762435384 
0.03823777076667952 
0.006605834435352847 
0.01994343178342107 
0.1518967843337127 
-0.09255731481376638 
-0.03375836348486794 
0.1139837807624453 
-0.02515060076802976 
0.07747851129417122 
0.1409641627482134 
0.03746001942426046 
0.1398668763079821 
-0.002245297147421797 
0.1078556990730451 
-0.05766228973796817 
-0.002130086584673802 
-0.0186789012959071 
-0.03419226765571323 
-0.02519512389749969 
-0.03514758626914613 
-0.07603594418027168 
-0.05505810892649739 
-0.01495904004901119 
-0.1114327542405435 
-0.03136471233778642 
0.006705995659993914 
-0.02481506080941451 
0.0149039805031971 
-0.03030641048503705 
0.009849512162473144 
-0.02389508730274979 
-0.05280721278978387 
-0.009674496145960455 
-0.01209933727836767 
-0.009618966981578254 
-0.07920959879232588 
-0.04146871465427652 
-0.119256744560925 
-0.01837037801235264 
-0.07991320047073583 
-0.01843163855298141 
-0.04834098772977788 
-0.01252936319107437 
-0.03085773822695246 
-0.01768817249813485 
-0.03837234430767511 
-0.01871672273325639 
-0.007568613277899311 
-0.02539449590050764 
-0.01958312706214565 
-0.009534358495015795 
-0.06973053993516827 
-0.03704210398612894 
-0.005762046102118005 
-0.1070167317569137 
-0.0340185771425854 
0.03210240859081813 
-0.0134130465433357 
0.05061547817719637 
-0.0109812897070493 
0.04283548679773733 
-0.007514256380492745 
-0.01370297502990953 
-0.003926881111656151 
-0.04579221633566828 
-0.03676485933982108 
-0.0413654222468824 
-0.010780278837087 
-0.04136865518812838 
-0.01015456307678411 
-0.01284444188310608 
-0.01284421599989607 
-0.01638534270501386 
-0.0112524935741385 
-0.02054942347268099 
-0.01017231472914314 
-0.02023338248291501 
-0.04888294318975923 
-0.007262499372133206 
-0.08487242316651002 
-0.01991754356957079 
-0.03318750585688629 
-0.0219638641633995 
-6.281251531044599e-05 
0.03124619739315973 
0.02275760374026034 
0.03642518858361102 
0.01068764408834742 
0.03591688936165742 
-0.04360635274631807 
-0.05163435133200134 
-0.04070822989525322 
-0.009902665495135982 
-0.0577380968363953 
-0.01289424044339805 
-0.03379259449287918 
-0.03700285761607459 
-0.03072180398208774 
-0.03578695250863437 
-0.02992778041955927 
-0.03705507741306372 
-0.0630738800685967 
-0.006437167049438204 
-0.06372097853344973 
-0.06106687226876326 
-0.08105240115998773 
0.004182050955853042 
-0.02112718930459782 
0.02029313203491378 
-0.01453889252557059 
0.01003587562286106 
-0.02438010691068837 
-0.06901843871537429 
-0.07951641403337252 
0.08416611766807942 
-0.08348674374035635 
-0.02010420656120291 
0.02740722707511058 
-0.002572294840249444 
0.03815732777824045 
-0.01946281129545037 
0.02728450734101495 
-0.0603233600898539 
-0.09361994098415402 
-0.07462108256124991 
0.001868850075060887 
-0.03641975350387093 
0.0142380746347337 
-0.03372109290469009 
0.006298796251657861 
-0.03801864633376469 
-0.08193448183744158 
-0.07122632325743362 
-0.01951756053610008 
-0.01527028532618279 
-0.009767525553191967 
-0.01368747289654871 
-0.009445654457529156 
-0.0139204160998177 
-0.08078793738556492 
-0.03000636659844257 
0.02826552572051627 
-0.02362442812699184 
0.04185048537812407 
-0.04038141584861761 
0.02980982639045737 
-0.01711565963582235 
-0.01001800467093597 
-0.01141789781572539 
-0.02221159587301343 
-0.01770811825332994 
-0.02146993670410034 
0.02292751634033352 
0.05673975529471859 
0.01438964767322326 
0.04439878368141193 
0.004840802978928568 
0.03397865415620651 
0.07226460530475924 
0.02280561863436206 
0.06393810929135342 
0.03183106517072071 
0.05141142005930623 
0.01559518436497176 
0.01608939250960948 
0.06384273917536648 
0.001723164443962304 
