solver_type L2R_L2LOSS_RANKSVM
nr_class 2
nr_feature 45
bias -1
w
1.12491907005747 
0.3158001087190372 
0.1041927752230117 
0.1444608967299982 
1.948116447463138 
0.2025704501455591 
0.9806485707138834 
0.3970738665699001 
0.9014887010410507 
-0.7272429606486576 
0.1089266192910775 
-0.2447889179169689 
-0.6185969572562452 
-0.1438913411138037 
-0.5602682482692333 
-0.08255544967268309 
-0.475711048972717 
0.1167695010387087 
0.2230560631112984 
0.6718670620017489 
0.1362361441596949 
0.01138683849196388 
0.2095730622748137 
0.07071624699968029 
0.03280649719390669 
0.374284653631807 
0.05331873722530395 
-0.1107375726908726 
0.2255046859732109 
-0.01102991819926465 
-0.06060197171164161 
-0.2179993184448156 
-0.08956102115685841 
-0.1921501472010011 
-0.07700233780850353 
-0.1055033050813678 
-0.006210870330755111 
-0.08711097080303117 
-0.04931575234940541 
-0.09244684508378571 
-0.1717867098706748 
-0.07166906992514864 
-0.06455399055967864 
-0.2325832868326303 
-0.03031320354805711 
