solver_type L2R_L2LOSS_RANKSVM
nr_class 2
nr_feature 231
bias -1
w
0.7598817628984882 
0.03419279787487413 
0.3179762904090089 
0.38775738356093 
0.1789198131695239 
0.6058780032674626 
-0.3828063457880672 
0.2470960307118159 
-0.252412262537966 
0.4889093852630273 
0.651212303698813 
0.4513041815421487 
-0.01435431914757683 
0.5822984524580977 
0.106181933337906 
0.4113833796032276 
0.8734873285300797 
0.7001651278449843 
0.9226097483849751 
1.281361286060623 
1.620171413103133 
-0.8418567200443345 
-0.1473215169744857 
-0.4533059623333459 
-0.4590324729695761 
-0.4820908540290597 
-0.1689931289566932 
-0.5456838353650699 
-0.07360101080194648 
-0.1354515206382697 
0.1349061955259446 
-0.1558275311229379 
-0.08946003404814523 
0.08269101109723011 
0.1865666287531578 
-0.2440613455880297 
-0.1355057825171242 
-0.1399556016069644 
-0.4017892408345528 
-0.3690659965625551 
-0.7860187646397919 
0.1712095272789404 
0.2600861379955149 
-0.02122025669685411 
0.2883830742663583 
0.1481873978530597 
-0.1356746289133226 
0.1162347480787238 
0.1323423598862593 
0.01947289445724712 
0.1281102267500294 
-0.0110647795875565 
-0.0462008189258465 
-0.1904969186400255 
0.1908867490048951 
0.1153722817388129 
0.3044270348350849 
-0.1490787809206623 
0.76732345369967 
0.3768678833859818 
0.06091304877080095 
0.2146084444250171 
0.1064320341692401 
-0.08677078298815823 
0.1192716908184849 
0.2556202878496005 
-0.03737289460079979 
-0.2264358046711896 
-0.09150987686455454 
-0.1595151141024612 
-0.3382264604106509 
-0.4469018723406832 
0.2167187832251077 
0.4377003936473918 
-0.4431879883022864 
-0.3225175861314647 
-0.1594237739180427 
0.4524305109402186 
-0.002292292261434583 
0.0247483926552701 
-0.04148696327912452 
0.004417692356635606 
-0.04676160419418681 
0.0137600627901779 
-0.06829425085007912 
0.001117170049705291 
-0.03155964265873865 
-0.09170970431470117 
-0.09306472274637868 
-0.0009234912824987219 
0.01740948230391854 
-0.05767901015038316 
-0.001102586176015707 
-0.05593164033371397 
-0.05969888272873369 
-0.0009398154492048804 
-0.0355450218654433 
0.02438615682961516 
-0.02455982856438564 
-0.0205137120727901 
0.0575649497817852 
-0.03486040561560247 
-0.04903755083467023 
0.04452230999379275 
0.01220634010850716 
0.01891347743167632 
0.01690967159118933 
-0.08064734657379091 
-0.009170263130507559 
-0.09011581643567559 
-0.04511072411101295 
-0.07245664427970941 
0.01693075206820168 
-0.05945791465140939 
0.03031148065659369 
-0.06265987495516402 
0.02285938520004768 
-0.03321780671053368 
-0.07888884489771668 
-0.1008325312962908 
-0.002643859644791784 
0.02187533365673422 
-0.06140243979240629 
0.001220001410214107 
-0.05671026341499519 
-0.05439885153262956 
-0.04653945520781419 
-0.02974275643489117 
-0.1111554455219498 
-0.1913967660677192 
-0.1230341207359988 
-0.1023473195976106 
-0.2112014432960829 
-0.1676821534266293 
-0.0002608345845319774 
0.002198186948697722 
-0.06300555870081274 
-0.01416598874340378 
-0.05959992479337461 
-0.05814380145405134 
-0.02367650256801133 
0.009861295832030988 
0.1036902397676615 
-0.001360858235388583 
-0.03490033238474329 
0.0936152915577317 
0.04051407164201781 
0.01978431915854466 
0.01745953835757879 
-0.07354155656633579 
-0.006489418091024701 
-0.08004484247216902 
-0.03705521330855067 
-0.154906954709216 
-0.1786781799156512 
-0.1643215163251746 
-0.1277908049041352 
-0.1981505906146809 
-0.1347019774182968 
0.01205451544008967 
0.01484943648647054 
-0.07817086020462206 
-0.001210515414431259 
-0.08301908386947125 
-0.01315865167187039 
-0.04586988364982973 
0.2748988810741594 
0.1407062900387286 
-0.107395012792739 
-0.1607025718244984 
0.02737659013346582 
0.02528568955963291 
-0.03963948562848033 
-0.02056683117032477 
-0.01946662036261367 
-0.04316699231790176 
-0.1000917179026349 
-0.1655479784354704 
0.04054975165296852 
-0.06083896305070313 
0.01273017315044245 
0.04978858411567669 
-0.09768917129295998 
0.02435217643646968 
-0.04050605996745595 
0.09618554843638415 
0.10569370598406 
-0.1307325372640758 
-0.1957829982889968 
0.03154859615114604 
0.03122847677887271 
-0.04485777787789776 
-0.02486925947294298 
-0.02663963928178454 
-0.05080382848686254 
-0.202644495404997 
-0.2028662393934523 
0.01636230318514978 
0.01487061574482076 
-0.05615653686003327 
-0.03319690081629464 
-0.0440932737003223 
-0.04872450908463183 
-0.08710615063759977 
0.01332637792691862 
0.05425175180181122 
-0.1060917609227094 
0.02740695736291758 
-0.04154922750666028 
0.1005349383560299 
0.01111549126714595 
0.04402599636769262 
-0.09019255767976782 
0.005774016421861661 
-0.05262152524007808 
0.08026965203151017 
0.1005425246961999 
0.03143965032963965 
0.03265094764050929 
-0.006200267468290951 
-0.01218317975026537 
0.01561856439970235 
0.08494261323291055 
-0.01359361351072746 
0.05506695855099301 
-0.009852720591056026 
0.04099563562638751 
-0.04846067036738698 
-0.0338102035798188 
0.0853534048220556 
-0.05358472095426924 
