solver_type L2R_L2LOSS_RANKSVM
nr_class 2
nr_feature 231
bias -1
w
1.415721631245599 
0.3852221664692667 
0.407679171591292 
0.320077950950956 
0.1494381266683505 
0.1595828059994588 
-0.04821368838831239 
-0.03330987011975017 
0.2857658482763428 
0.4985653320746366 
0.8834923914680396 
0.4196651520850976 
0.1365545463265403 
0.7136461245723787 
0.01953066093533655 
0.252584307058508 
1.459941420571347 
0.5291606770237616 
1.463871168383562 
1.210292549043687 
1.579421088793736 
-0.8113289864818365 
-0.2252390549850454 
-0.2602545600534607 
-0.2796001147637878 
-0.1002133949012886 
0.02513490510474012 
-0.2158436962520989 
0.1407052474386777 
-0.3532969890051293 
-0.3826752264473325 
-0.1831781684082779 
-0.1492515494595492 
-0.2086610375576551 
-0.1045248126818619 
-0.5956963327978017 
-0.6624685223460505 
-0.5820765746326888 
-0.5932572886930991 
-0.3876874052533439 
-0.5581824052920946 
-0.1270372853203354 
-0.08202010558761333 
-0.2036896647506826 
0.08420518197264286 
0.02054933795657727 
-0.1867671716892327 
0.2929168601977484 
-0.05162965854120619 
0.3056492066685136 
0.07829906693155241 
0.1809064308820061 
0.07670600100929797 
0.3392170020585643 
0.1136744981494825 
0.505528765275414 
0.08146092020624135 
0.2257049524411623 
0.3279732533468666 
0.1727094318163929 
-0.1738946670265537 
-0.226446870374681 
0.2202832839475719 
-0.1425185470435645 
-0.1668652663774454 
0.2433086984718332 
-0.1602547962496416 
-0.2574495245629552 
0.04657618921286579 
-0.01353934893252096 
-0.1211477775743313 
-0.02949162031399929 
0.1117129121322208 
-0.06954317110260294 
-0.09401222028914778 
-0.1840900758669127 
0.1867884056040152 
-0.09688870911123063 
0.02012427775930496 
0.03630367186915049 
0.06627676976361313 
0.1570959347707527 
0.007871102188758798 
-0.07532507616630972 
-0.124305977304823 
-0.08530674493767329 
0.06523059543693843 
-0.1519840884824496 
-0.03448371200577491 
-0.05779681391658391 
-0.1061456364841899 
-0.1244126116271786 
-0.1474480608061945 
-0.1173743620827599 
-0.1583073434535947 
0.04229409428354434 
0.07297168627859799 
0.02705797488372589 
0.02666961804807292 
-0.1764397549642866 
-0.1162230626776178 
-0.203458182641391 
0.04154032330083417 
-0.1720703500477808 
-0.004740278560971273 
-0.1413086905822204 
-0.2717972085806882 
-0.2223842598896011 
-0.2702104041359307 
-0.1954727999708665 
-0.2575046247647389 
0.08051147331619096 
0.1852835154270174 
0.0169898939170296 
-0.06437753368703818 
-0.1186287244324196 
-0.1158433283847691 
0.07356855292345714 
-0.1781370073460296 
-0.03472335885411667 
-0.09155696354950604 
-0.1318372968071636 
-0.1371823660388142 
-0.1612356366625415 
-0.1033144064738144 
-0.1586630247623931 
0.08376935206137151 
0.02451277754378263 
-0.01564604158017614 
-0.01602922055817844 
-0.01479833380152773 
0.006293701490174467 
-0.03053625529567841 
0.0006132056720515108 
0.04128351513497674 
0.09250398449474358 
0.02767827107877871 
0.04762829827338309 
0.0146018272259294 
0.03002551333612639 
0.08337069045153006 
-0.07593734085012652 
0.05570991317332068 
-0.1360087043469297 
0.05425203664101821 
-0.0045095302274882 
0.03238009931880396 
-0.1295664872819839 
-0.2011279239964697 
-0.1391501565439408 
-0.1717257805189266 
-0.06593115976314791 
-0.1456411237556559 
-0.111306534305745 
-0.1156523623276499 
-0.09677476670891165 
-0.01869841996398767 
-0.1104192654801512 
-0.05662637227734324 
-0.006375787862725135 
-0.01493486709706182 
-0.05747719612491633 
-0.04383865360594234 
-0.06955004819913103 
-0.04796103599264377 
0.09967080705471647 
0.09815899185032974 
0.006179070338058749 
-0.01255961772013849 
-0.1025314985234775 
-0.0160201135426702 
-0.1413433449756394 
-0.0701721754159499 
-0.1300600253252737 
-0.08744315665746695 
-0.146141519183573 
0.07983812671928657 
0.003386771830071487 
0.3959588349251052 
-0.03717766685047738 
-0.04976720355097104 
0.05804026729080154 
-0.1653946357214268 
-0.04565822930271234 
-0.1945723603804483 
-0.1017864087060439 
-0.02755316374410035 
0.08427867506078515 
-0.1262804281746118 
0.01110953236703942 
-0.1551615686636327 
-0.07152242583849963 
-0.182936089386405 
-0.0891746137462706 
-0.2094725114765751 
-0.08862872853320709 
-0.02824456455679578 
0.04018926554641718 
0.002474986972673128 
0.02684800943253809 
0.007833220680199808 
0.01901804188149551 
0.01717835133628627 
-0.102461943245988 
-0.0314733001074063 
-0.005519218625251704 
-0.1954237345036965 
-0.1310723829198487 
-0.2306150996256223 
-0.2204327833902885 
-0.01520833145216561 
0.02106269702480876 
-0.08601602013266009 
-0.06066471404018924 
-0.1054324422560301 
-0.06630160050941966 
0.1028497197680616 
-0.06657788765155737 
-0.1350012879226153 
-0.07389938997498301 
-0.2101351306492394 
-0.05740653492749691 
0.174135860213873 
-0.06112462562883017 
0.0782386325975082 
-0.112706406648659 
-0.1072735902538188 
-0.2054772991955227 
-0.1421481003588106 
0.03439641353617329 
-0.1748347815846089 
