solver_type L2R_L2LOSS_RANKSVM
nr_class 2
nr_feature 45
bias -1
w
1.142858072169088 
0.2368356927321177 
0.1589777006490852 
0.2078581806250299 
0.7321113738942211 
0.154619873903173 
0.7916674113252974 
0.5644787618269427 
1.202050817117273 
-0.3598375585944756 
-0.1824056830486965 
-0.1691379443527257 
-0.2550102726727472 
-0.2116581488110896 
-0.6024142389815257 
-0.3911553383377924 
-0.6362839931464377 
0.008754467777140397 
0.0441207354472997 
0.1990994584375144 
0.0309364359958686 
0.1012648475614143 
0.3685796652804127 
0.3662658961247928 
0.2031677979762035 
0.3068654213630312 
-0.1317288433545651 
-0.03992436086156776 
0.1778200858961664 
0.3020938418485475 
0.03829514489902035 
0.01180439524270353 
0.009490581896900213 
-0.0148514552964448 
-0.009524274311781156 
0.01605832861749778 
0.1172126519246731 
-0.005852588055441791 
0.09720586342257262 
0.01531692189132881 
0.001610027265224811 
0.0007058584806652612 
0.005679975556740869 
0.2466977822685386 
-0.004881428515073748 
