solver_type L2R_L2LOSS_RANKSVM
nr_class 2
nr_feature 231
bias -1
w
0.9157364154153483 
1.071261383742402 
0.2416349937061897 
0.04560262130045117 
0.08894744324916545 
0.1704150534218819 
-0.2168999498162451 
-0.1319218671537677 
0.03969891656906684 
0.0943347243177621 
1.201389671461902 
0.1469676053391458 
-0.04200297160688898 
1.521186674678318 
-1.002424475651348 
0.5528408690500055 
0.679097438409996 
0.4350910117195282 
0.9864750612336061 
0.3897902490454652 
0.6478233589059255 
-0.4821199383298172 
0.5386935106739846 
-0.1254622463040168 
-0.01648325507280027 
-0.1907076556628123 
-0.00292009952591509 
-0.1193061736558148 
0.2540097060388963 
-0.2472898418842276 
-0.1092325767701929 
-0.2636548170619424 
-0.02264018414916465 
-0.5453458243224172 
0.3754469351136942 
0.02610253505535962 
0.4012166917608049 
-0.3146620516256396 
0.07087440248232559 
-0.3301996242731597 
-0.1171050464046332 
-0.5709396834320926 
-0.05831082318781115 
-0.4431069872770482 
-0.1900847200549764 
0.1366107640761432 
-0.8431353099908379 
0.1418459650614351 
-0.2722048246925601 
0.4557979114816011 
-0.36122074169894 
-0.03470610620468488 
0.9941335472507941 
-0.6965710271221652 
0.03172007181821394 
-0.7165620659760085 
-0.06983899832200668 
-0.4991502116652221 
0.002559970309384546 
-0.4613159068274392 
-0.04849740406251404 
0.06871007892841385 
-0.02256876627103084 
-0.2171867223415524 
-0.05357808340252802 
-0.08435569994077734 
-0.06420839857030572 
-0.04909021972776199 
-0.02482017540163764 
-0.1477417992298698 
-0.6273081635900224 
-0.007432953147185384 
0.106037045038855 
0.1001115398159262 
-0.1690667063821563 
-0.2142968369509487 
-0.1622863151425936 
-0.3771836506832446 
0.03019105774788131 
-0.01146993644734524 
-0.01729330319340431 
0.03759640927746304 
0.0368091859530362 
-0.0450914014301647 
0.03166166324922086 
-0.0639083863470566 
-0.009290404691133821 
-0.06478498223599723 
0.08115239295923669 
0.003021325162066581 
0.08055215845032079 
-0.006219972906251217 
0.09580395610614102 
-0.0006045512146129568 
0.07464226317973005 
0.05153183875210615 
0.01486354799328822 
0.2117790206951104 
0.1720276117699225 
0.0344679035944819 
-0.03617678586857553 
0.02552307414639862 
0.04328070986642854 
-0.200032969166324 
0.03794877884705888 
0.02467833317935678 
0.1451753179233098 
0.07350974952327394 
0.4035878463019957 
0.06923227132846436 
0.3302777144992125 
-0.02642813044053294 
0.07414630774024446 
0.01695264503951802 
0.006457794303761165 
0.08894705350688012 
0.005774249824137174 
0.009738485803257049 
-0.01284531183987064 
0.1189786922816162 
0.05689339516226419 
0.1616065478621818 
0.04443920338141093 
0.1658426685101303 
0.03825853658481865 
0.1291188116243682 
-0.001111325149520567 
0.08826368917056313 
-0.1321534694485669 
-0.1213041952423651 
-0.1649983577676843 
-0.05883328094109269 
-0.109676877189688 
-0.0636948513054348 
-0.07685954725533606 
-0.0900049355733316 
-0.06194913674820439 
-0.03984342875167741 
-0.04528515009234828 
-0.02725003279606487 
0.2029896339331509 
0.08339770864696017 
0.1405683682602495 
0.09377954382680409 
0.06148025999566094 
-0.04950711226780816 
0.1016993229125317 
0.07963622289441669 
0.3579242243826004 
0.1216183569258626 
0.5970079073556285 
0.1088753261375641 
0.4828837625931718 
-0.08463000347588351 
-0.2738885103789354 
-0.1083286979190032 
-0.02052999465602273 
-0.2381131851369708 
-0.08851530392851642 
-0.04920563616146022 
-0.2040247149162822 
0.007549853478637319 
-0.0135700262252301 
0.02200638673486121 
0.006057366738326379 
0.0382037874790102 
-0.418909649222624 
-0.2090194422820367 
-0.1437196623089127 
0.227637547130502 
0.003320659967494487 
0.115926421413311 
-0.07265147763521496 
0.09623381849948248 
-0.03698810046072497 
0.09530185066404276 
-0.04704086704181255 
0.2082393936259916 
-1.053557548902907 
0.006558166194026327 
0.06074423633401645 
-0.2395182323883354 
0.08735859528348901 
-0.1895724335924271 
0.1026842801045615 
-0.09141698220296503 
-0.2631228807311403 
-0.3009805103806971 
0.1762120783375185 
0.04935044281055796 
0.17150812401904 
-0.056026644947871 
0.1196059080936188 
-0.03675543948209931 
0.1049523750459245 
0.1887000465135407 
0.3399273364690928 
-0.0429541056142404 
0.01476592232158789 
-0.08789172921328754 
0.04147212558492933 
-0.04926786563099102 
0.05674554119362703 
-0.1497147312592166 
0.05839767439603628 
-0.3709902181920551 
0.0442384679943567 
-0.4319483311300975 
0.03387719264479101 
-0.3122533391675384 
0.0343606478859815 
-0.3635968180413521 
0.08027174903356522 
-0.1878117595417177 
0.108149467402215 
-0.1299562097336669 
0.1425489867906819 
-0.001848570104933292 
0.1116539392528887 
-0.02075761911904526 
0.07008113350712826 
0.1582714300745173 
0.6382307172924585 
0.1302814808577792 
0.4924487057927287 
0.2179806027732819 
0.01271027847734068 
0.1842923688770571 
0.2128892985993432 
1.140525284012891 
0.1738168033274978 
