solver_type L2R_L2LOSS_RANKSVM
nr_class 2
nr_feature 78
bias -1
w
1.253333648492699 
0.7219931353178652 
0.6009849901275905 
-2.541553379794882 
-0.3804335530766597 
-0.5709472198726667 
0.5602762645704107 
0.359475395103177 
-0.1915144458190599 
1.250308192207107 
0.7241223196194262 
-0.637250115985489 
-0.1299118462522366 
-0.4647499334244529 
0.7394226321390212 
-0.8281883196319224 
0.7487590990360897 
-0.2638474273458426 
-0.5927673332944423 
0.02350781037102233 
-0.2455573460175412 
0.1263995505646946 
0.6296618096252117 
-0.697071563044663 
-0.7683228658466159 
0.3533856814375065 
-0.5082357158302861 
-0.1205468186582543 
0.5266885825481058 
0.1824357509355112 
0.1060122570245647 
-0.1101863255764289 
-0.6183785396424464 
-0.1030030854161975 
0.3379425951818216 
-0.009280886399181225 
0.01952727111283706 
-0.1571652316630421 
-0.03372111783337221 
0.1293767051561424 
0.02381558983159378 
0.1747111428026379 
1.806714953324876 
0.1622749657757397 
-0.7223839158154881 
-0.9864510872327552 
0.1433348484994326 
-0.2613635298458252 
0.03174591259875582 
-0.1773150952060074 
0.3563569892572039 
0.03000575520373644 
-0.5641144771899027 
0.3081441191822194 
0.8609451857644158 
1.53582738774566 
1.482293845508886 
0.02796996882517586 
-0.09517917972012745 
0.06448980632350161 
-0.1519589815031076 
-0.1363289742387084 
-0.1492148477970051 
4.04400924476633 
0.6582280547763573 
-0.6090628323939959 
-0.474763929160113 
-0.7418534319498903 
0.1696416383455843 
-0.4310984844799733 
-0.3078166927303543 
-0.6348746871869686 
-0.2499149912865582 
-0.2349618285405261 
-0.3390177641117301 
1.067508328989502 
0.3765364802146287 
0.8125353453533918 
