solver_type L2R_L2LOSS_RANKSVM
nr_class 2
nr_feature 231
bias -1
w
0.3869977924239744 
1.244255062610309 
-0.2594355332578978 
0.1248168942930165 
-0.1427032870864948 
0.01122403598605345 
0.2649428632778947 
-0.07166276373850217 
-0.5180971673458041 
0.3985223339838967 
0.554267438084361 
0.2670548768938242 
0.4871224940462681 
0.5405064934599916 
0.1434066508167723 
0.08740516974269634 
1.042748997334337 
0.08634342537211426 
0.6801915069904308 
0.0689039005525303 
0.5244481048343652 
0.07455860363113734 
0.01549780917200189 
-0.09557511861169485 
-0.02078435898827043 
-0.1366043489176961 
0.05495900716705154 
-0.07104941595986865 
0.02250936642172054 
-0.08411035979098944 
0.01189976887654916 
-0.1969339479627552 
0.05051587162696133 
-0.08931969044672596 
0.0244757106020453 
-0.02233103799664818 
0.07032040197849809 
-0.05509907400156904 
-0.02215095309807023 
-0.06447149478439322 
-0.04335865939729095 
-0.4530865135335118 
0.1445486945804131 
-0.1295005493088444 
0.06629073029861829 
0.2336041931828222 
-0.2137853497770522 
-0.1994287182649088 
0.39637931740997 
0.2651075067786726 
0.3209662668242816 
0.4343959230012163 
0.2038180283272 
0.2059114652364355 
0.04114087879342732 
0.7056742842144654 
0.03216681895758546 
0.5432168628686675 
0.0264677399732318 
0.459755874965738 
-0.03592287131390755 
-0.03270635496661587 
-0.0389870701354534 
0.008388178218060344 
-0.0211036557572957 
-0.03305977258054493 
-0.0285830940521036 
0.1134813459183906 
-0.06128831900534649 
0.01605785681031389 
0.06596341668141315 
0.05785381090646646 
0.0005102765237291851 
0.08859519375599127 
-0.01413796987452542 
0.01810560231588458 
-0.01701162663414995 
0.01666346044090109 
-0.00604608012352972 
-0.006510089308721498 
0.007858203629019952 
-0.01057990348638085 
0.0004775015722998567 
0.05075218863542741 
-0.001809986994993668 
0.03877697626045026 
0.05539486136833471 
-0.005154162418669958 
0.001959439356169783 
-0.009742900449484724 
-0.006537281697157954 
-0.01200453452719824 
-0.005130276845849125 
-0.01547258482370278 
-0.005743108678523555 
-0.008635618050460411 
-0.0008123432595027028 
-0.007338957221801831 
-0.1131283445155428 
-0.005848348654897309 
0.01368483157564292 
-0.009464571148223602 
-0.001068517270211036 
0.01555810707035517 
-0.01710602094025152 
-0.003147329890859375 
-0.01028070836067226 
-0.003807936695073316 
-0.0359472436108933 
-0.00405933863464933 
-0.03760804019912737 
0.01957338490916333 
-0.01211120394136467 
0.001366164254644115 
0.04424849367643199 
-0.002155612970951865 
0.02161261220911968 
0.06297474594205495 
-0.004777725173592252 
0.002812611012315556 
-0.009579546108148207 
-0.006010751145608981 
-0.01381321566795897 
-0.006409578766484124 
-0.01731187996158172 
-0.007675797214768169 
-0.0005872890570583727 
-0.004198344615182283 
0.05060927701340862 
0.0006905902527918468 
0.0668582617090383 
0.03421665678427963 
0.0006068122207849964 
-0.001038766640913802 
-0.007526583796997487 
-0.003448950376596975 
-0.001089334196467897 
-0.001754350133712753 
-0.0008833698078147974 
-0.001169301336237505 
-0.1143097768765205 
-0.007535414037874436 
0.03971437876300227 
-0.01117189470896977 
-0.001450411100728664 
0.03988856709717681 
-0.04208017640582278 
-0.004110820532626332 
0.04467016063388272 
-0.007106094802328019 
0.0007991329181205966 
-0.00784603589573362 
-0.01036213192162902 
-0.001276631343419473 
-0.03866956699590646 
-0.0008324304181480281 
-0.001954231413319373 
-0.03819943424944748 
0.01486405536683197 
-0.000625316158479195 
-0.1296941080004117 
0.00110547685372514 
-0.1115547343469568 
0.001158397019246455 
-0.1039501154758242 
-0.004104212939446643 
0.03715703042332696 
0.09235407976050719 
-0.001738561700892501 
-0.004722735750983003 
0.0386766987789447 
-0.01115117664652491 
0.04116611386221765 
-0.009693134809775223 
0.03908296921391796 
-0.008571435792160742 
-0.004499594027747371 
-0.002104295183933954 
0.1528313846774097 
0.1380399118805128 
0.0009415821342488664 
0.02384082218034346 
-0.001634232610024161 
0.01452551080724511 
-0.001486325335506424 
0.0155907518637243 
0.1106202021407228 
-0.0007847404295289076 
-0.004503023552108519 
0.029653050927674 
-0.01286411492594641 
0.02886183204712412 
-0.01149194827876212 
0.0260500679627321 
-0.01064394076660947 
-0.001235306090938383 
-0.002780473475093971 
0.04340120975949723 
-0.005472844258633492 
0.05129008652826944 
-0.004685863738107716 
0.05030449138326605 
-0.003799587594057937 
0.1179389762772096 
0.0006009390050873755 
0.009288344356958592 
-0.003038208011409179 
0.002040654521710176 
-0.003028210892245062 
-0.01171587261954578 
0.001653233891145972 
-0.02147749723520638 
0.0008950075215889544 
-0.02072759464871061 
0.0009906473389384217 
-0.008488950403709681 
-0.002596259316473978 
-0.008628974043402442 
-0.002469380377218044 
-0.01243953770489627 
-0.003809159481598211 
-0.004550258832030141 
0.2321544809126138 
-0.005605517675146311 
0.2126572320659202 
-0.003645335384318803 
-0.005679989428165069 
-0.004272540682386503 
-0.003677663794686348 
0.2186438130024095 
-0.004150314772636621 
