solver_type L2R_L2LOSS_RANKSVM
nr_class 2
nr_feature 231
bias -1
w
1.303930359142723 
0.2063113262650957 
0.5269053497282867 
0.1073623418838505 
0.1937780484475347 
-0.3190744142836095 
0.421531645159028 
-0.10186617337624 
0.2943645634156118 
0.2924598349190528 
0.678497279467083 
-0.08681113517369739 
0.2878547481628734 
0.5407977109303227 
0.2021255429112001 
0.2395630734958222 
1.524663982342305 
0.3838011281202872 
1.149200993511719 
0.6224124612067796 
0.9353025728761498 
-0.2635220624638263 
-0.6127421893454207 
-0.05504310461240236 
-0.2222320057880395 
0.04383997301906715 
-0.02914694414481726 
-0.1491238479962173 
0.01692145895597556 
-0.1057315763365753 
-0.4029253391564088 
-0.01289366031096851 
-0.07020171626925932 
-0.2982241864503529 
-0.07003703764569848 
-0.3180970274778278 
-0.5241175196630929 
-0.1865672383334229 
-0.3834056969054049 
-0.1314278266093528 
-0.3658746207064628 
-0.1577143079907441 
0.09949263330550395 
-0.1137009463742216 
0.02533121658621685 
0.1847437134134091 
-0.1868605237261086 
0.2030262251584898 
-0.0068898815990769 
0.01574659572199311 
-0.09048674584601588 
0.1165432219156784 
0.1299391282663481 
0.2572291778872178 
0.04406339354903514 
0.4622401904993905 
0.1064674886604739 
0.2392362447692176 
0.2104173937525757 
0.0314335136099433 
0.1209889412590735 
0.004632389363217707 
0.09592699554882134 
-0.01612831545876891 
-0.03766749236107779 
-0.001622941107296612 
0.05280617803087354 
-0.2169666598101186 
-0.0154133433324008 
0.06982639238346157 
-0.0007420994288970806 
0.004889235650018753 
-0.09103284712507198 
0.08862349604941568 
0.02777217810319985 
-0.01559255399885547 
0.09719929573539197 
-0.2320812812533083 
-0.0001988028705472225 
-0.01360136297561941 
-0.02799408453286359 
0.00913597775601583 
-0.04402536616354066 
-0.02825880707071362 
-0.06554205327887161 
-0.02891340957583281 
0.004332189235104449 
-0.09853422418120236 
-0.05553323814891464 
-0.1664402865899491 
-0.05619508818901045 
-0.1159665081016903 
-0.05876122192790382 
-0.07863315230164239 
-0.05317674171210231 
-0.01418176266959745 
0.02359175206575852 
-0.08867721566638634 
0.00531451966648399 
-0.08744842732080528 
-0.07449532796994761 
-0.1139122424188264 
8.329450214458658e-05 
-0.1747806504906922 
0.01571776430322339 
-0.1736062157028524 
0.002273984743158854 
-0.08899312266161653 
0.013674449534704 
-0.05381575502121583 
0.01370861242424743 
-0.007078937710408921 
0.06509132493970604 
-0.05790437629562969 
0.03888130125105188 
0.01577802895407351 
0.01639826451242675 
0.04620999270213803 
0.001516546593822686 
-0.01551800688938987 
-0.1470674657148167 
-0.05874912983277054 
-0.09058038954556709 
-0.06672220298387152 
-0.03531935242534732 
-0.04795984007141597 
-0.00299584766898826 
-0.03399321257763986 
-0.05224182976208466 
-0.08706926309545562 
-0.0009703406618015772 
-0.09203303941229803 
-0.04606354697201491 
-0.09108379874690575 
-0.0163495594939199 
-0.01726601153597469 
-0.03212688809624299 
-0.006944708344954494 
-0.03041428906326933 
-0.001271470811810936 
-0.02554227185646298 
-0.0003067365683256003 
0.03249168589699808 
-0.01225894370093826 
0.01971935583129539 
0.014575827103026 
0.01351235145892885 
-0.149979997123356 
0.007640804923187361 
-0.06098159418865252 
0.01818019146517636 
0.003409159998627113 
0.01352980229043348 
-0.09213350287074827 
-0.1321118480018137 
-0.07854467973930096 
-0.07797974582388326 
-0.1507582078972338 
-0.05670865787265957 
-0.04161027874842999 
-0.04276451054474377 
-0.05926828344933605 
-0.009199952186602698 
-0.06239850941566989 
0.004130193132557211 
0.0454592082829464 
0.09110103425689406 
-0.07443968927291451 
0.04304366828112982 
-0.1147725755521209 
-0.09939481201001001 
-0.02950253686808592 
-0.07965160537031922 
-0.08640213802519645 
-0.052027821258243 
-0.08303435842356355 
0.08496562514847847 
-0.09352936503128963 
0.3553534602318526 
-0.07623065452110007 
-0.1075205824281099 
0.09716032105330984 
-0.09619036264960354 
-0.01924102192042937 
-0.08428222478198256 
-0.04400965464367423 
-0.01373829173316408 
0.1330129264672591 
-0.08034494081756301 
-0.05479952554255754 
-0.01830750162626269 
-0.05019983604789714 
-0.09091724508441193 
-0.02374272077219524 
-0.1013805881451451 
-0.04919313439510213 
-0.1759051890284259 
-0.03556228766468021 
-0.03452337722036334 
-0.03929937333247634 
-0.04820085346321876 
-0.04274042783372601 
-0.05126404926660003 
-0.07509278923227011 
-0.07257866080989013 
0.1062130594206065 
-0.106602831536295 
-0.05806776277937563 
-0.1067727852677837 
-0.1458323243250429 
-0.01643773442688831 
-0.02805672131381086 
-0.04065231327136966 
-0.05784755266255667 
-0.05944205576613031 
-0.04953791750122045 
-0.02730126762648667 
-0.05868015947807846 
-0.08630686450077407 
-0.04050216106187245 
-0.07700123036922701 
0.03128687372165458 
0.2499120030167133 
0.0280324468131747 
0.2031904495819125 
0.004099478622498081 
0.002294697115476591 
0.01793128669809333 
0.02656474023800756 
0.1990811799044862 
0.06171370792221469 
