solver_type L2R_L2LOSS_RANKSVM
nr_class 2
nr_feature 210
bias -1
w
0.9023803048067169 
0.1626710314099573 
-0.02830846095575385 
0.1197000214098185 
0.06662680316604735 
-0.004192742853405382 
0.03759088187116243 
0.08376193046750186 
0.02349609957535263 
0.4256149977873276 
-0.04782978824431318 
0.1607564767887469 
0.4727609162062663 
0.2210403677918939 
0.1748852230870298 
0.6456143664107854 
0.08333372510156853 
0.3029951430938056 
0.1072595336690377 
0.3037777014227617 
0.02538562724958211 
-0.0208272201577961 
-0.01646635008759958 
0.07832872432293293 
-0.05833916437935047 
0.07917149771308582 
-0.05591228456829171 
-0.06263187976947902 
-0.03255007272374127 
-0.05784454253242573 
0.002825059808601939 
-0.07878992843621516 
0.02685690536057751 
0.03836112549759747 
0.1064284679758746 
-0.01334701391031162 
0.01221169226717634 
-0.0009388291152571983 
0.03052199205967759 
-0.006798662116788846 
0.0150849811352046 
0.02147839086891188 
-0.01423743870903242 
-0.008182856838094263 
0.02406089178146474 
0.002103923520119826 
0.1994908039749184 
-0.02657317270994298 
0.05517208935704327 
0.1440665649064365 
0.1213127646991383 
0.0186416681131542 
0.236097618011649 
-0.01753517484584898 
0.07003545636429449 
-0.006801796616260689 
0.07135786444532755 
-0.02140517715621044 
-0.03081736953312649 
0.003028080316929335 
-0.02760520962069973 
0.00351463405205074 
-0.06287754724740527 
-0.0472267046814947 
-0.08155505289738463 
0.005659809548782705 
-0.07145816311411998 
0.005665342955536694 
-0.004063096920017442 
0.01514509496272424 
-0.02012382090894277 
-0.005242277469612457 
-0.01828524463393065 
0.001442515041739669 
-0.01301139194429188 
-0.004199600178878792 
-0.05008242637570691 
-0.002545194223655056 
-0.03731537179750945 
-0.008637462997002764 
-0.04719040341194573 
-0.001057496479191038 
-0.05250226853818234 
0.01630381119234735 
0.0003951954493219307 
0.06926878937729689 
-0.01462529824695855 
0.003750608481265964 
-0.01105010192205173 
0.003338614502705183 
-0.008924727692677038 
0.02778124519607131 
-0.01541719791064944 
-0.05632629205323787 
-0.03520935132348833 
-0.07251850220572173 
0.002301877132788687 
-0.0332008569492791 
0.0002583011029356728 
0.01788423578135835 
0.04730535800374976 
-0.00629439345285298 
0.0170017419319646 
-0.004536126231621772 
0.02985212629713146 
-0.0255759286820434 
0.008968906699734576 
-0.005126924836574297 
-0.0122315714768859 
-0.003555985302451267 
-0.006011600067966669 
-0.02970172386058071 
-0.002501642026080247 
-0.01485872134555945 
-0.01930232344218027 
-0.009497987949352572 
-0.0131804233434397 
-0.009967482306224547 
-0.01575871423411096 
0.003174211709150899 
-0.0352581923130391 
-0.01688384462896644 
-0.03749850905699816 
-0.012101854626302 
-0.05977856948795583 
0.02711596538806903 
0.01916443700560153 
0.1002595013406186 
-0.006959453668464332 
0.006176322961705543 
-0.000689376600458912 
0.007985712421685814 
0.001744545094865629 
-0.005634393949000638 
-0.003612322168535877 
0.0008937925346328529 
-0.01659992925636225 
-0.002760070339975813 
-0.01465315276967567 
-0.03439318598969916 
-0.008299850821582185 
-0.01408707596367309 
-0.009732723453720289 
-0.01303553259052875 
-0.006513805856170177 
-0.04022773581612137 
0.005810259295729034 
-0.001552687641046602 
0.009248155553589817 
-0.005972156373284623 
0.01641537854579438 
-0.02846920850652428 
-0.004060136136239199 
-0.03018830708598782 
0.003447237014913057 
-0.008052787376408879 
0.002929710724995972 
0.09962183688927657 
0.02210313282598805 
0.007189777470983649 
0.1246821502463722 
-0.01584934947663219 
0.03640990724039704 
-0.01799423023055795 
0.03514330522458645 
0.01477623360090775 
-0.01681542877048247 
0.01037191029783431 
-0.0003915116627044219 
0.02866398737663228 
-0.03267402847955368 
-0.005333332132088245 
-0.03298639403067766 
0.007875602877204291 
-0.002392365753283505 
-0.007212538511498629 
-0.006523242054074476 
-0.002426089225311924 
-0.000725122143151305 
0.004344884658158597 
-0.0022249181811202 
0.0009963149807431901 
0.01420666831051043 
0.01828661846388407 
0.1766770155653368 
-0.01470367403338039 
0.03986213265802899 
-0.008931615126190499 
0.0469503249007228 
-0.001181966976886147 
-0.000610230081514845 
0.004359174451036367 
0.015969161785967 
0.0003664010517409003 
0.01648854543483889 
0.04585840036262526 
0.01427014510279742 
0.0301820082427109 
0.01532646417532996 
0.03284007229141973 
0.03075796185560569 
0.1139754456844792 
0.03585838487027614 
0.1080948707531135 
0.01899360903480087 
0.005116515657094093 
0.02300115377696039 
0.02384077051744421 
0.05648412720759545 
0.03255942589539262 
