solver_type L2R_L2LOSS_RANKSVM
nr_class 2
nr_feature 45
bias -1
w
0.3714180410590474 
1.288872311433061 
-0.2749964748583432 
0.1994974306167849 
0.9765432732543845 
0.2044688813177157 
0.6438006358416887 
0.199711722782351 
0.4694766797879534 
0.01097345654231986 
0.1800991750163387 
-0.04327074166760621 
0.07321755238324937 
-0.09380964522623721 
-0.02107370492313972 
-0.100643677206791 
-0.0452254807471624 
-0.4476562041267078 
0.1627323064500831 
0.5551568578126996 
0.161168256777995 
0.4274041965961058 
0.1657754920443919 
0.3367051227151237 
-0.0129270504956657 
0.07139037082790108 
-0.04384063498088774 
0.001124178852813106 
-0.04097099227148028 
0.001757358610429059 
-0.005765385356885096 
-0.005784175043801761 
-0.005304706028097165 
-0.009484473416089673 
-0.006578476204081407 
-0.00673393297638472 
0.2701662038842118 
-0.007686680560618528 
0.2416521651913717 
-0.005255554419126654 
0.001440569121562536 
-0.00646405405411629 
-0.005755901706792187 
0.2482112945708065 
-0.005729966034755346 
