solver_type L2R_L2LOSS_RANKSVM
nr_class 2
nr_feature 231
bias -1
w
0.9813532254826222 
0.3841056204559898 
0.5156235267279565 
0.3335593315183932 
-0.0983954243205208 
0.2720297843040874 
0.002564236328332054 
-0.006579890047363562 
0.2032258335698159 
0.3297414109695013 
1.054068324959235 
0.3366922689846928 
0.08699360248260699 
0.7917165659638286 
-0.06413838639337147 
0.5743798588975374 
1.115195605860841 
0.7319167586046119 
1.10551612020705 
1.174568746464293 
1.391492548484424 
-0.1071802334310079 
-0.5017753208494519 
-0.1295217298753621 
-0.2820305023648096 
-0.1041190368872783 
-0.01282797011638591 
-0.2731227952754564 
0.03353487093223147 
-0.1187489614451666 
-0.3124848356496989 
-0.1127295883000248 
0.01319326133456962 
-0.2757252732469394 
-0.03141348428495176 
-0.3360396462072557 
-0.5343096846267087 
-0.2251987194597274 
-0.5250503417521108 
-0.2315726884483835 
-0.5712586661635161 
-0.3847802491497459 
-0.07908032327378488 
-0.192244652646623 
-0.09572086304796773 
-0.003596313189481309 
-0.1521497115412327 
0.1677575460057605 
0.008684985904553501 
0.3781661731563286 
-0.05947334078967731 
0.2210331728815353 
0.113650163849727 
0.1740919287199574 
0.1079585756822849 
0.1545033882144789 
0.1041101725205745 
0.4731796281719206 
0.1076679379320939 
0.4800136209134981 
0.05514688198826116 
-0.1726048037517204 
0.1936070723529238 
-0.08928988402077247 
-0.1910974807807468 
0.2451430075761795 
0.06313496349594955 
-0.267569383359865 
0.195671660130899 
0.17715734187136 
-0.3240711110350313 
-0.08331669546294361 
0.1948583327476842 
0.00506185235083028 
0.1210646504899556 
-0.09573783045628662 
0.1824758798113796 
-0.2408196719147577 
-0.07947264544566898 
0.108595288157516 
0.08882116058808447 
-0.05425996039380074 
0.018661537257398 
0.03599144607155993 
-0.1018788424738209 
-0.006809338484540515 
0.08523723243971551 
-0.3013047630945761 
-0.01725115073198743 
-0.06452664319909271 
-0.09621144991597926 
-0.0006218051106423733 
-0.1333160713926879 
0.04451327234913686 
-0.140984590086293 
-0.105004884233539 
0.01361132797695769 
-0.0396062321339391 
-0.02088497071983422 
-0.1118123599942263 
-0.05941401530658807 
-0.1163242785977749 
-0.001865163872304187 
-0.1682442040262235 
-0.07386271678319228 
-0.1224049631501332 
0.00117085644329153 
-0.1526871502595465 
-0.03908322182010887 
-0.1432772975631817 
-0.01806634944135706 
0.04741976447559711 
-0.02656552567062008 
-0.007440007981492738 
0.09052081426112735 
-0.1197408694927227 
0.07150625953368295 
0.04873597571368998 
-0.331767088932561 
-0.05680773922011233 
-0.1063858078273291 
-0.1175081502649196 
-0.04745583785278617 
-0.1649728434820715 
0.005405389198425488 
-0.1802092116491299 
-0.02859689225180317 
0.0612959092443856 
0.007892423115835538 
0.0686876072702064 
-0.006736255213463367 
0.03330028210523532 
0.07790951447403099 
0.06909874295270536 
-0.0001147704207084786 
-0.04115788877660172 
0.04548104755887887 
-0.007033674857385642 
0.0452022363789359 
-0.01885704560412705 
-0.0392862428181616 
-0.0525143428611405 
0.3040274167721645 
-0.05326947320446994 
-0.02747487047103342 
0.224549050880722 
-0.04056552579949862 
-0.1477560768952718 
0.07552403035443017 
-0.124411413278665 
0.1273375655938644 
-0.1103574777119186 
0.1472676401209619 
0.06091259299799164 
-0.123956882933486 
0.08435695339077219 
0.04948110055124004 
-0.08150367002026926 
-0.04207882588465871 
0.02273273490152945 
0.02536799380772677 
-0.0006167664962600621 
0.01110662420855799 
-0.01774987088485686 
0.003788881888019326 
-0.0554377403551496 
0.1776882392409581 
-0.006180648727199017 
-0.3198065820648677 
-0.09579500537356229 
0.05654064697340433 
-0.04893455130333318 
0.002489247037090039 
-0.1166920045899114 
-0.004047158471494325 
-0.1945893276153309 
-0.05223776465430811 
-0.06532042581806827 
0.6822530010320245 
0.06182793152458105 
-0.07992370035426351 
0.04218191652273606 
-0.1480326212390684 
0.09211030507900214 
-0.218141221222467 
0.01661181265402643 
-0.01684507409552841 
-0.2452561002372566 
-0.08655482930195293 
0.02844220664426053 
-0.03698880450841027 
-0.02981737448758365 
-0.1118293767914821 
-0.02883221592274533 
-0.1896847407200972 
-0.1382113934247377 
-0.05151619139609642 
0.08149067641293192 
0.02033682523014076 
0.0619757519902434 
0.01194535514715262 
0.07200111182264494 
-0.01670337123667189 
-0.05439015165328352 
-0.2493725343617199 
-0.103318632567035 
-0.3943403516848473 
-0.05402607486648653 
-0.4872127450029761 
-0.1326978466973119 
-0.02061687711178637 
0.01416804582459479 
-0.03313849182098749 
0.006407920794264031 
-0.05039340925719547 
-0.05327936353629636 
0.1962475902086943 
-0.08791615044668113 
-0.1426758249605593 
-0.1224152896576435 
-0.1971502533593769 
-0.1520467067313939 
0.3467522045492318 
-0.1859027897834411 
0.3001046831384326 
-0.2450190218640519 
-0.1615065258633692 
-0.3342560350942727 
-0.2921967293852265 
0.3110756930448226 
-0.2919500400418528 
