solver_type L2R_L2LOSS_RANKSVM
nr_class 2
nr_feature 231
bias -1
w
1.072868773969301 
0.2496601966867684 
0.6451628168395362 
-0.1003479180249583 
0.3356799439626971 
0.4840694964441992 
-0.09739772597973732 
0.3690570016667755 
-0.07817088393277771 
0.424315666644826 
0.8028929713751666 
0.5474390475530427 
0.06957326426162205 
0.7329846853991109 
0.05500850905079607 
0.6990867828201935 
1.904525475438289 
0.7982820659333772 
1.22295443222544 
1.182085999714168 
1.271231481886984 
-0.2817938478895481 
-0.2955312994419711 
-0.3100471045974218 
-0.2401048850496572 
-0.08517896827916165 
-0.07438419554753417 
-0.2759409186445118 
0.04636430225547507 
-0.176535981737635 
-0.2047911636694544 
-0.1244144364823517 
-0.0292609547512339 
-0.3204143208238903 
0.01285183491878632 
-0.5618249380303254 
-0.8335629597313032 
-0.536814910576648 
-0.904019088409502 
-0.3524668256687895 
-0.6679693180547642 
-0.4987087370367597 
0.1056157641206067 
0.07720072177414558 
0.3615699527322822 
0.09319307800844699 
0.1598686502123767 
0.08577629764998906 
0.06569568732896515 
0.30800167306289 
0.0920461247031566 
0.1319920644361998 
0.1680589093698435 
0.1087447990353977 
0.2580479658197373 
0.5527876597523163 
0.3010472213172231 
0.399895095111535 
0.5585225620188907 
0.5520705105784076 
-0.2980659537467817 
-0.1420674955376502 
0.02263777126920522 
-0.08455144203574688 
-0.2082281652360602 
0.1555900588365387 
-0.1473711248378796 
-0.1141192061424071 
-0.02036458307948705 
-0.1373571435712341 
-0.1833664234184021 
-0.1146022969255792 
-0.0515831780159098 
0.05536002118705678 
-0.2660423888330144 
-0.332435716234058 
-0.06815936119419801 
-0.1540084063082673 
-0.1150974097637073 
-0.1354066184425122 
0.07025717475802472 
-0.1146417628179547 
0.05843486296472022 
-0.0817412078353263 
-0.107952807039147 
-0.1077357463724971 
0.04430415193206233 
-0.178373496824336 
0.03428413591080543 
-0.1337335800477797 
-0.05644345079085286 
-0.1127624189954704 
-0.05700416326629548 
-0.05997695927468233 
-0.03462645542698232 
-0.07376570522586696 
0.06180392636619812 
0.01706569738672614 
-0.0103541268303038 
-0.1059463637437378 
-0.00978901127719476 
-0.1158616981445511 
-0.0004772696401725181 
-0.05024603453378303 
-0.0203231918679574 
-0.1387161972430133 
0.02624626664705269 
-0.1859144161259201 
-0.02801272860162599 
-0.160345233929109 
-0.0236468034405781 
0.04550375977012635 
-0.01008919337090105 
0.01961232828391216 
-0.03966633057415132 
-0.09501212902107888 
-0.08521179099590025 
0.06417152040231361 
-0.1655089803073376 
0.04035418677149057 
-0.1164727269547304 
-0.002374231445626139 
-0.09851759531624935 
-0.04772660663633962 
-0.04787255512199327 
-0.02754048695945932 
0.03583753053770744 
0.05957357273433133 
-0.02758111980292809 
-0.01051779105621824 
-0.0283278924744342 
-0.005423051443736523 
-0.02164725498852869 
-0.001554434479884894 
-0.001339496161897817 
-0.005516181788408056 
0.01336234497355759 
0.037509938739452 
0.03676496500136445 
0.05561653930651051 
0.01592092685972828 
-0.0253026924732274 
0.09591068438620359 
-0.0655340964422125 
0.02945932926217464 
0.03610950909107347 
0.002643294131913828 
-0.1174624541597493 
0.08242273742235739 
-0.1751585627029053 
-0.002043928775494638 
-0.1400910052513542 
0.003459484197417456 
-0.0976115852612798 
-0.1228023329307733 
-0.1053430058640169 
-0.03231635864425673 
-0.1512816818055853 
-0.04183012141310034 
-0.04433366885407976 
-0.04353574177842721 
-0.06892352724539248 
-0.0371943955485969 
-0.07353984478847611 
-0.04690908135803194 
0.03727052777634127 
0.1373596871647785 
0.08824458825523729 
-0.01608442712501463 
0.02017435028317092 
0.01106069177317799 
-0.01625433458252818 
-0.05169345531854388 
-0.08800818401304396 
-0.04907373291911271 
-0.07231202444240108 
0.03928937605369948 
0.01000505015613985 
0.009986705613018902 
-0.08716792990093303 
-0.04323515891154417 
0.1073600436637777 
-0.17238852091242 
-0.0009445971469228751 
-0.1892068231940794 
0.008582968270723659 
0.06314771613542927 
0.004312401794354732 
0.002101458682057442 
-0.02539446064490151 
-0.02200062714737703 
-0.09038777460579636 
-0.1019359126412927 
-0.09170834234027996 
-0.08567141794942197 
-0.03754050521644336 
4.35418223396003e-05 
0.06151038582041843 
-0.02673024395326506 
0.05547047806514922 
-0.01701461157141729 
0.06300347962951311 
-0.005336880447699324 
-0.1547627110078147 
-0.06187717971748244 
0.1139482025156626 
-0.202585002808434 
0.003943749081263591 
-0.2379385225511798 
0.008867975268762505 
0.01642058597893495 
-0.04870005999735611 
-0.02462609735189188 
-0.08664770054316566 
-0.02747328978706667 
-0.07061693622844838 
0.07565482492853023 
-0.06352839727162497 
-0.1265827910764799 
-0.0584530536310499 
-0.1418516546604017 
-0.06478047985299534 
0.2431248143800858 
-0.04553916825314659 
0.1869990738348467 
-0.2214998541473451 
-0.08271494891067943 
-0.2372347425466742 
-0.2159169395489076 
-0.05923597437664815 
-0.1845450569925381 
